9996 16
the -0.057101957 -0.02830362 -0.025679396 -0.013210518 -0.035798226 0.069935545 0.057899382 0.0018827574 -0.023876255 -0.010949439 -0.078362584 0.06591114 -0.052031945 -0.03541023 0.09170892 0.021763852
and -0.13986303 0.08977399 -0.13097435 -0.14057745 -0.1512274 0.14992902 0.05454323 0.021248035 -0.09015556 -0.069368385 -0.14194825 0.089502566 0.08395506 -0.04292532 -0.07563871 0.086566724
a -0.11348881 0.05682948 -0.011809511 -0.04902657 -0.050486073 0.1255413 0.07254098 0.0027738602 0.023793502 -0.0459187 -0.032396317 0.039577078 -0.029183704 -0.08643345 0.08169106 0.09039989
of -0.030464005 -0.026825167 0.03791821 -0.014482599 0.013385797 -0.019527083 -0.0023951258 0.042219453 0.033653207 -0.046833917 -0.06605725 0.0055954857 0.044970106 -0.015980316 -0.0005537194 0.0059265746
to 0.08768873 -0.0036280588 0.05296174 -0.012515237 0.027950455 -0.006018808 0.044041585 0.082415275 0.0273436 -0.038258824 -0.08031925 0.043035813 0.07158501 0.06310245 -0.026092516 -0.0038695377
is 0.0019061738 0.028525036 -0.0313809 -0.008718238 -0.094416834 0.0040507806 0.13264564 0.02726509 -0.07076596 -0.08958926 -0.078636386 0.0035899382 -0.042405162 -0.06802487 0.1588017 0.097907476
br -0.05823521 0.007999797 0.0692068 -0.00813234 0.017883444 0.07818885 0.07421986 0.07696775 0.005487314 -0.043501977 -0.08309144 -0.063226976 0.035924688 -0.02709961 0.0983121 -0.025853774
in 0.00905491 -0.05544783 -0.02656139 -0.012327365 -0.0057549626 -0.0473263 -0.030589059 -0.0023474824 -0.008701782 -0.0056564487 -0.06071677 0.023326878 0.07531719 0.06441746 -0.09259765 -0.027907858
it -0.05333534 -0.07204731 -0.025204405 -0.06667906 0.0032463141 -0.027222525 -0.021694405 -0.013212954 -0.032940645 0.0021516907 0.042258702 0.06265432 0.04069678 0.03390345 -0.026357291 0.07487831
i -0.052318547 0.02910049 -0.03773134 0.015782882 0.008302323 0.061112456 -0.013096002 0.071953565 -0.018879965 -0.046801414 -0.062145274 0.024185732 0.021044483 0.005138676 -0.00473143 -0.02381811
this -0.07399804 -0.01880201 -0.00718872 -0.044761296 -0.03604455 -0.032384098 -0.022545617 0.03226527 0.02827144 0.035785776 0.010719243 0.00904014 0.05719106 -0.0040543852 0.07253131 -0.060884256
that 0.07148543 -0.027003242 0.046388175 0.018453691 -0.05039809 -0.002206341 -0.030178437 0.0481998 -0.025547614 -0.0583426 -0.03140217 -0.039949324 0.010533768 0.07632954 0.043872297 -0.063136175
was 0.052745316 -0.05255397 0.06763703 0.079969995 -0.00054270995 -0.03657493 0.10460231 0.0052932864 -0.04913775 0.012842459 -0.12417376 -0.05084462 0.087794624 0.026956735 -0.09513292 0.026183408
as -0.08926486 0.012085437 -0.034895718 -0.019190045 -0.017659642 0.01443409 -0.006771824 0.02140531 0.012701918 -0.0448496 0.009895693 0.042093303 -0.04228042 -0.014449792 -0.097056024 0.052783825
for -0.028748866 0.033241834 0.027293876 -0.002231246 -0.0008469801 -0.029903315 -0.02832961 -0.020700406 -0.02693806 0.019384287 0.0049999105 0.0030333297 0.024380542 0.022004478 0.056453712 -0.046779454
with 0.05565122 0.033381518 -0.059125897 -0.018645145 0.02889822 0.05695674 -0.07392848 -0.017482385 -0.044484507 0.007947154 -0.046449795 0.033303022 -0.014970057 -0.011580838 0.092971124 -0.07795205
movie 0.03728181 -0.055864133 0.04002974 0.06550888 -0.0590544 0.03373837 0.013894363 0.053698312 -0.03635821 -0.0050998228 0.0044840635 0.03711924 0.02138874 0.06160635 0.06762626 -0.019048711
but -0.020861784 -0.04504852 0.008839416 -0.055405308 0.02382615 0.07611613 -0.0004897543 -0.014184837 -0.048759636 -0.019697396 -0.038488522 0.013748353 0.03577439 -0.07901272 0.09792848 0.012504376
film 0.012953296 0.03617558 -0.04315847 -0.061505694 0.0062507424 -0.04968325 0.030604508 0.024399554 -0.036382522 -0.041573193 0.01864582 0.022572078 0.030060144 0.0065667043 0.07277113 0.019214848
on 0.064546116 -0.08485146 0.0107675055 0.00340867 0.0029064289 -0.076334015 0.010550132 0.014155835 0.057226036 -0.023185827 -0.07264781 -0.035965264 -0.017929956 -0.016295949 0.005104935 -0.042570394
not 0.040168393 -0.036797427 0.061959345 0.05018018 -0.07901692 0.0010380048 0.013565811 0.05169009 0.059274584 0.06322828 0.0063037165 0.043835502 0.027653618 0.052607626 -0.016997293 -0.004001497
you 0.0055013425 -0.024432488 -0.08510389 -0.07568547 0.0686848 0.0112369675 -0.033114627 -0.020301457 0.03569206 -0.021012185 -0.008531408 -0.008147818 -0.019695904 0.027542664 0.040653627 -0.011552531
are 0.028692733 0.028867234 0.022535825 -0.0036511682 -0.04056669 -0.025554981 0.08954221 0.012991984 0.03888218 -0.04354904 0.08870192 -0.02651982 -0.060585525 -0.02627965 0.0073735784 0.010640574
his -0.03146486 -0.032855596 0.013588957 -0.069757335 0.009814147 -0.022685891 -0.05299118 0.06259495 -0.038383245 0.070927 -0.012035204 0.03954072 0.030660171 0.03762689 0.042983778 0.054293755
have -0.038007494 0.035628807 0.040707618 0.056124702 0.0057516764 0.056749318 0.033970468 0.04543573 -0.008287342 0.0008958636 -0.041059382 -0.014918451 0.008772712 -0.05274045 -0.037914786 -0.0127585335
he -0.061668165 0.014848932 0.0111020785 -0.034522153 0.04638597 -0.046565816 0.015831312 0.011404573 -0.030339384 0.022394966 -0.052703787 0.021607837 -0.0474512 -0.029075682 0.031253885 -0.012279967
be 0.04036299 -0.049444 -0.025500827 0.01351867 -0.013504048 -0.10628448 -0.0043784324 0.093466155 0.046940733 -0.016999131 0.040430203 -0.0060353596 0.033540796 -0.0074605597 -0.08368476 -0.020367876
one -0.04771831 -0.015601971 -0.005769405 0.06628025 -0.01926258 1.3619374e-05 -0.028354425 -0.069919854 0.049534746 0.013010639 0.007829755 -0.020915251 -0.018611524 -0.02650129 -0.089973606 0.06289017
all 0.044073325 0.024338087 -0.013150799 0.04955189 -0.033081133 0.019513367 -0.034330778 0.013575221 0.025483202 -0.018491426 0.043407857 0.06654258 0.018705199 0.013006238 0.11616178 0.03876898
at -0.07538249 0.005236449 -0.011692661 0.0076848473 -0.041189454 0.09060104 -0.015891403 0.02353804 0.024201075 -0.012463951 -0.0028960453 -0.014978261 0.029124994 0.009195106 0.049774684 -0.07101944
by -0.05598145 -0.04955457 -0.018613923 0.018970205 -0.01617212 -0.081987165 0.09000037 -0.027142243 0.010552943 -0.022909619 -0.033299074 0.09695316 -0.045470662 -0.058630418 0.048523914 0.0056762975
an -0.10423416 -0.0016519212 0.026964957 0.0219767 -0.029826 0.094416745 0.058562573 0.011393796 -0.019255964 -0.055196702 0.020069014 -0.06318026 -0.025625695 0.005695855 -0.042686686 -0.021448856
they -0.0060701133 0.009693277 0.0013507092 -0.0044424883 0.028135387 -0.013375266 -0.0036167768 -0.10878455 -0.0023063512 -0.014564865 -0.024771102 -0.025717651 -0.008671313 -0.024563912 -0.06569867 0.005360482
who -0.06922777 -0.09490671 -0.042206876 -0.03381094 -0.00377749 0.0176558 -0.013853788 -0.038397457 -0.014808051 0.027893722 0.016955208 -0.0040054303 -0.044440694 0.019029703 0.00953301 -0.004877013
so -0.0756599 0.048944335 -0.047294382 -0.047037486 0.00070745393 -0.07044417 0.05168793 -0.088844195 0.02673913 -0.013916817 0.012315993 0.046301913 0.0027323118 -0.041784946 0.034855682 0.016298223
from -0.06956594 0.0020211136 -0.05308875 0.014368014 -0.0043799113 0.03552762 0.009602858 0.020011839 -0.04490137 0.032576423 -0.053010385 -0.039769858 -0.034080118 0.0068329377 0.005469337 -0.04679731
like 0.0045769066 -0.040627673 0.026696403 0.032350753 -0.035474006 0.05187557 0.03502784 0.026996454 0.0041776844 0.018942393 -0.006621735 -0.047913466 0.042485334 -0.053891357 0.0615351 0.055619024
her -0.015775176 0.0073021036 -0.05131524 -0.06348475 -0.044475272 0.035453506 0.017223364 0.043753624 -0.029070433 -5.9901635e-05 -0.01643824 -0.042994544 -0.022918688 0.03465088 -0.052179616 -0.00651267
or 0.028810702 0.021314293 0.00041598498 0.04225981 -0.04329773 0.063507795 0.072179966 0.094044775 0.052852657 -0.08110076 0.005278849 0.046640135 -0.07481285 0.0024295147 0.08612163 0.011500951
just -0.04086316 0.061862197 0.09051074 0.013555 -0.047625676 -0.024960184 0.07000901 -0.09821517 -0.021505399 0.026004974 -0.06854757 -0.021830315 0.012613844 -0.060156725 0.14249864 0.035125725
about -0.057949424 -0.016081605 0.010090305 0.022559147 0.062455382 0.0010357804 -0.021502495 0.028383026 0.008750465 -0.03890828 -0.06193804 -0.056306858 0.028170127 -0.033883065 -0.015600802 -0.005253171
it's -0.0667484 0.026039092 -0.040355746 -0.0051884805 -0.08999948 0.103324585 -0.028101662 -4.7461726e-05 0.003299174 -0.10082454 -0.009407092 0.02770489 0.053003225 -0.025275104 0.109094985 0.045576688
out -0.021091804 -0.019909019 0.026986435 0.043481298 -0.026201824 0.041604735 0.0035045214 0.02467614 -0.012050538 0.015177137 -0.008165731 -0.027859192 0.027272534 0.03187856 0.011751907 0.02791546
has 0.016215665 -0.07495521 0.026118739 -0.024832927 0.014266717 -0.072349414 0.043937497 0.010639893 0.03490529 0.045384128 0.026544565 0.010165757 0.0012292159 0.03425181 0.013741712 0.045480024
if -0.06282044 0.037787355 0.07921765 0.08032053 -0.044527598 0.032550585 4.350549e-05 -0.0020538694 0.048812967 0.016318673 -0.053602614 -0.055639602 0.007494434 -0.00440148 -0.041263524 -0.068228975
some -0.03507641 -0.049320865 0.037953556 0.02982951 -0.0415468 -0.017971125 -0.043856774 -0.003058935 0.04868493 0.0042370036 -0.052080233 -0.001227088 0.03213928 0.025325574 -0.04964572 0.05091218
there -0.03708641 0.026277626 0.0725593 0.03505391 -0.05803371 0.080648705 0.029190714 0.034326892 0.010152977 0.002253133 0.019504596 0.0027295982 -0.031689897 0.06382713 -0.0005634591 -0.033692874
what -0.07550568 0.00065685675 -0.01700429 -0.02801417 -0.024602154 0.02292413 -0.033043675 0.056961436 0.0073345676 -0.02440818 -0.045676637 0.008565039 -0.067482285 0.051428016 0.021585653 0.058901377
good -0.029267477 0.060971893 -0.050777443 -0.023435054 -0.036968585 -0.0035412733 -0.0068649147 0.04653875 -0.08155653 -0.017828621 -0.008698644 0.010371134 -0.07561561 0.03910664 0.02100211 0.06429582
more 0.05102707 0.05125739 -0.042977102 -0.05030643 -0.046365876 0.07024437 0.044192005 -0.060075745 0.031683784 -0.02741562 0.021702806 -0.029929793 0.04748258 0.006972505 -0.020722095 -0.0056473208
when -0.06616499 0.003821993 0.024888696 0.023407258 -0.0052800947 -0.013917597 -0.035253808 0.034334585 0.012973916 0.027038956 0.039890673 0.057293527 -0.040954504 0.0584715 -0.008607581 0.029276004
very 0.092587925 -0.053922974 -0.0816977 -0.061220754 -0.03500254 0.07410055 0.016283523 0.087566175 -0.06490845 -0.012340976 -0.13767552 -0.06268998 -0.018255893 -0.02485085 0.14713901 0.0451957
up 0.038324304 -0.015587256 0.046511255 -0.03560717 0.0069498075 -0.011284533 0.01623196 0.00796585 0.02362269 0.04275854 0.0076226746 -0.03157563 -0.021088364 -0.03160265 -0.029329527 0.06266349
no 0.06658145 0.034579877 0.08383959 0.042722393 -0.003209452 0.009848122 0.064635225 -0.0014981529 0.046895284 0.08371236 -0.022737417 -0.06754675 0.05053414 0.05313446 -0.05051552 -0.007924715
time -0.019673262 -0.085350156 -0.03791604 0.03265501 -0.057287987 -0.0024378584 0.021881318 0.056772042 -0.064022094 -0.030029932 -0.0009966164 0.035258673 0.012946324 0.021829505 0.08888883 0.01792454
she 0.03359003 0.03654833 -0.035389062 -0.03136409 -0.007895229 -0.032425348 -0.01912157 -0.0054792087 0.0049143117 0.007335632 -0.025638487 0.0073507056 0.05286492 0.010443173 -0.03181616 -0.034671858
even -0.018748537 -0.014825452 0.11140588 0.01865433 -0.046165887 0.013063382 0.050284687 -0.041754726 -0.031752344 0.08194097 -0.0153479315 0.02867369 0.10775242 0.018640105 0.0040062494 -0.060435485
my -0.026612164 -0.014880111 -0.028586991 0.053864572 -0.037104923 0.08263156 -0.01646805 -0.05842777 -0.030031072 -0.07129498 -0.0577992 0.024639154 -0.00853752 0.09758881 0.028985718 0.051721115
would -0.0550087 0.032079604 0.07427102 0.015843691 -0.061758455 -0.029880775 0.01683565 0.0068846038 0.052586377 -0.014952453 0.014255602 0.031036722 0.010487614 -0.08484876 0.056377884 -0.060184084
which -0.005212251 -0.033502463 -0.01143765 -0.008600258 0.010482709 -0.0053480333 0.042432018 -0.025528856 0.018368274 -0.010018086 -0.010236787 0.039858498 -0.028381357 -0.02799673 -0.034747235 0.021342704
only -0.050529182 -0.06827816 0.10007506 -0.0221746 -0.05984643 -0.038709715 0.036094546 -0.024325399 0.053760715 0.004888007 0.044665378 -0.01634489 0.01830532 0.011304581 -0.005411133 -0.064047985
story -0.032627374 -0.009546943 -0.054386243 -0.07261864 -0.0005222068 -0.009554153 0.02034551 0.050364956 -0.07815919 0.11647958 -0.027635258 0.02557765 0.044111896 -0.026086682 0.077066846 -0.010488796
really -0.04787914 0.014103918 -0.039379697 0.036198974 -0.09720979 0.002400873 0.009590772 -0.01499878 -0.009480301 0.03147321 0.011425618 0.03156966 0.024230955 -0.11934524 0.078104146 0.035439428
see -0.05979898 0.017996207 -0.03358792 0.0014894445 0.046441603 0.021581117 -0.059504233 0.03150883 -0.03674701 0.029299136 0.019705549 0.056819532 0.01806474 0.020772098 0.047163386 -0.022408227
their 0.048252128 0.0722498 0.0021142464 -0.05063138 0.063371815 -0.0010760145 0.018405607 0.0057365713 -0.038928147 0.066643015 -0.055911466 0.0095529 -0.026404966 0.04077157 -0.019483743 -0.051945724
had 0.057902258 -0.0021428098 0.05561538 -0.036031768 -0.011689571 -0.0501405 0.030707365 0.01379076 0.03141824 0.0017203998 -0.01781373 0.013486462 -0.026595239 -0.070647575 0.10354461 0.02931853
can -0.018340075 -0.0581015 0.054828312 0.014275821 0.031958472 -0.065924525 0.024634553 -0.015307189 0.0063546365 0.00994998 -0.002792554 0.020164043 0.011723571 -0.033605814 0.01746496 0.046846416
were 0.021102196 -0.026819002 0.03472362 0.012261551 -0.014990522 -0.016996754 0.003295758 -0.008460643 0.041295737 0.019769622 -0.047525384 -0.027711907 -0.019801691 -0.043707132 -0.09330065 -0.0070081954
me 0.009912863 -0.021573482 0.013812376 -0.009531612 -0.0756424 -0.11252563 -0.04249406 -0.0038500538 -0.012868909 0.031026065 -0.014509499 0.007383186 -0.019968301 0.018905872 -0.039059855 0.04863812
well 0.1567977 0.022355957 -0.09379927 -0.10192805 -0.023672534 -0.03398321 -0.07051531 0.04129926 -0.06342465 -0.053775527 -0.12603734 0.0018104208 -0.10966735 0.07506074 0.0801983 0.07883678
than -0.06325858 -0.008963759 0.018169025 -0.021602336 -0.015222864 0.060662575 0.017185101 0.055302158 0.050392922 0.0028611505 -0.015934527 -0.08563488 0.08246641 0.041951135 -0.032477323 -0.023447659
we 0.009944551 0.010472057 -0.010927319 0.003505257 0.070654966 0.00089851243 0.01597707 -0.012115677 0.006537021 -0.014062226 0.012499176 0.0007642041 -0.0200971 -0.007358936 -0.013156159 0.031798616
much 0.06208132 0.05812668 0.051074598 0.041100845 -0.025954334 0.033456918 -0.0072402847 0.058159508 0.010972964 -0.03621892 -0.05140767 -0.019522961 -0.0027025982 0.04169718 0.015850598 0.0020656125
been 0.0038156777 0.009241466 0.07435298 0.047635447 0.01733599 -0.046919186 0.030866556 -0.021994963 0.030426692 -0.013375171 0.016234474 0.0005947624 0.04295557 0.027034596 -0.065870255 -0.066200495
bad 0.117184855 0.047069516 0.09469438 0.086245485 -0.101424195 0.07761227 0.115457244 -0.024959117 0.099319585 0.031006785 -0.023934633 0.028185217 0.09802994 -0.021033982 -0.036754757 -0.08528263
get 0.064654954 -0.043300126 -0.017191788 -0.0008214132 0.034609165 0.060021468 0.022517588 0.004601599 0.037357245 -0.06522812 -0.096435755 -0.053738218 0.021610599 -0.027575964 0.07174013 0.003563637
will 0.04448186 -0.03310856 -0.103555135 -0.045896802 -0.03345478 -0.0833584 -0.06553262 -0.038762823 -0.022115886 -0.08303208 -0.05993252 0.0024314232 -0.03856979 -0.043730393 -0.054187555 0.061427344
do -0.0053723226 0.048506305 0.08454452 0.07736913 0.030377746 0.039146654 -0.018154534 -0.043909986 0.04336735 -0.010496016 0.007225453 -0.0051267752 0.022129355 -0.02331634 -0.03442125 0.02095432
also -0.037458856 -0.015310293 -0.095446676 -0.09730699 0.008154541 0.06669146 -0.10745026 0.08486457 -0.0022589604 0.0029404564 -0.05532453 0.024748646 -0.08684517 0.019752871 -0.04476768 0.115091495
into 0.03792339 -0.045231972 -0.014440826 0.009435658 -0.009762178 -0.020577418 -0.019016014 0.08554908 -0.024095956 0.003120733 0.04387732 -0.058715206 0.047051508 -0.0053356923 -0.027383624 -0.034671135
people 0.025637308 0.028454233 -0.034805253 -0.07584586 0.029028382 -0.0053768065 -0.012757768 -0.044447057 0.0043804334 -0.025345374 -0.025221247 0.0922193 0.010341208 0.04470171 -0.1419613 -0.021521438
other 0.034587566 -0.024914375 -0.0006491902 -0.082608104 0.024261937 0.0071766037 0.038080517 0.06212417 -0.014154453 -0.015649822 0.0176271 0.022611367 -0.054436922 0.019174658 0.038094953 -0.025790075
first 0.023121774 0.016840741 0.05837312 -0.058920883 -0.016096754 -0.082165495 0.034169648 -0.0029693765 -0.058817208 -0.04368476 0.036737945 0.036207553 -0.013246044 0.0032863838 0.08016935 0.009150879
great 0.045193873 -0.12590034 -0.1489301 -0.098765574 0.02226461 0.12075113 -0.07151341 0.11375731 -0.08403984 -0.058563605 0.12356829 -0.07390141 -0.055719 0.08333574 0.12965058 0.13709271
because -0.066748604 -0.021278292 0.05611695 -0.012872922 -0.01734427 -0.018365597 -0.064294554 -0.01869214 0.013015333 0.00508355 0.017842753 0.056269966 0.025772704 -0.017469713 0.010153149 -0.03748087
how -0.041765597 -0.013471639 0.008488928 -0.04124687 -0.019222466 -0.0103223575 0.056880742 -0.09205692 -0.02744633 0.0047289603 -0.070667505 -0.037810076 -0.009869913 -0.0054981182 -0.014002321 -0.046510734
him -0.030498644 -0.03562485 -0.036955934 0.03431846 -0.0073687374 0.03271805 -0.019238723 0.027607663 -0.019729076 0.008807608 -0.037688054 -0.015147921 0.0026300207 -0.030578036 0.0032547486 0.012538872
most -0.07407738 -0.04512729 -0.09451303 -0.023563998 -0.061454233 0.05252282 -0.05899339 0.018425368 -0.024705678 -0.05416148 -0.06000524 -0.08826996 0.080398016 0.046271384 0.059973244 0.06929652
don't -0.0666774 0.046703074 0.0184659 0.02974635 -0.026512176 -0.02283223 0.0069476855 -0.045112703 -0.026434151 0.012123476 -0.07467506 -0.0661822 0.022867627 -0.074838944 0.016639706 -0.0038119792
made 0.00024489927 0.008068534 -0.030491352 0.011795709 0.038381282 -0.049379822 0.029242704 0.023268668 0.02336303 0.018174924 0.0026955872 -0.057062432 -0.011275379 -0.015412215 0.07169233 -0.0017238413
its -0.012743379 0.029132811 -0.07551374 0.0070315404 -0.01787666 0.038288962 -0.017696176 -0.0062905066 -0.031573553 -0.057868674 0.04286515 0.022068284 -0.035110075 -0.043875284 0.07792811 0.024600344
then -0.008444103 -0.041900534 0.07919584 0.052957956 -0.05158364 -0.019277241 0.052788362 -0.07705869 0.030423667 0.0513456 0.032501664 -0.0023309374 0.06369585 0.049282044 -0.005235765 -0.090110205
way -0.017684888 -0.050740115 -0.046535213 -0.0012483438 0.026435304 0.03685563 -0.054078218 -0.0428684 -0.017998403 -0.034936342 0.017683031 -0.04767824 0.025165617 0.006546693 0.040294666 -0.022945305
make 0.04481093 0.05264255 0.062801935 0.07775942 -0.019800613 -0.058523543 -0.027025808 0.03926428 0.04974538 0.041151114 -0.06221966 0.006618995 0.07862652 0.0067226444 -0.009748071 -0.06579105
them 0.022237407 -0.030006606 -0.0033073558 0.028296737 0.023914253 -0.061883602 0.01526099 0.04812709 -0.021679644 0.014950038 -0.10805353 -0.058732025 -0.020841569 -0.034030028 0.019214012 -0.0040786793
too -0.024464492 -0.00838116 0.04994938 0.036111206 -0.04381314 -0.032281443 0.024402728 -0.06568523 0.033483118 -0.07000609 -0.010286667 0.03227798 -0.014629533 -0.021224482 0.04472616 0.02330248
could 0.04402693 0.0143604865 0.03631186 0.018776283 -0.09152037 -0.018989615 0.015550711 0.04241215 -0.0034308173 0.057389595 -0.041907642 0.048813175 -0.006192125 -0.036377188 -0.06060059 -0.043364327
any -0.02033664 0.0686381 0.088869065 0.06736051 -0.06399554 0.030640049 0.005771384 0.10443963 0.056050465 -0.031767935 -0.08679735 0.031967662 0.071663305 -0.07597754 -0.010384258 -0.024110638
movies 0.031006703 -0.047159884 0.0548239 -0.048735067 -0.010383151 -0.024827374 0.03346342 0.08878599 -0.033944637 -0.076225184 -0.117382936 0.09495247 0.01613155 -0.035777543 -0.025662014 0.0009930884
after -0.030061303 0.014391185 -0.007896922 0.028899238 0.0136609245 0.014271791 0.047392383 0.008895348 0.04312175 -0.018252311 0.03301062 0.04621747 -0.04404098 -0.0050404915 -0.0451337 0.061957724
think -0.037404027 -0.0011691946 -0.021791032 -0.06467228 0.041115988 0.079107195 -0.024492925 0.07729011 0.003236895 -0.028077614 -0.03308366 0.00066625746 -0.01497251 -0.006379091 0.027549032 0.07245654
characters -0.034929708 0.020660738 0.051218092 0.010443798 0.0064284923 0.010534108 0.08066643 -0.00036202196 -0.011121904 -0.024328144 -0.034562204 -0.07080028 0.021175146 0.010206241 0.14000568 -0.036036335
watch -0.026409032 -0.008479945 -0.02699984 -0.008461937 0.0013454682 -0.027372839 -0.07077009 -0.03332001 -0.0534294 -0.009603806 -0.00028016587 -0.022536088 -0.007423284 0.061496112 -0.08500538 0.0543311
two 0.0032186285 0.01757154 -0.022441663 0.00068103475 -0.0132269235 0.006542601 -0.015563901 -0.017173601 0.012015682 0.04454762 0.0022429037 -0.06688655 -0.02554381 0.01821895 -0.010774335 -0.06789388
films -0.0009665198 -0.013748037 -0.04653524 -0.04370379 -0.03060327 -0.008390966 0.054092433 -0.023574939 -0.035997316 0.036290914 -0.042449903 -0.025540566 0.0020269938 0.016835216 0.07059991 -0.014397048
character -0.028418355 0.035508297 -0.061186444 -0.004475799 -0.016664555 0.017030349 -0.051041048 -0.024251712 0.029055236 -0.040794253 -0.097850874 0.021760024 -0.01936546 -0.020036316 -0.09333061 0.038660396
seen -0.03349464 -0.0042503425 -0.046791106 -0.024661489 0.02315508 0.057060927 -0.09095905 0.038513627 -0.08646051 0.07061481 -0.010402515 -0.010044788 -0.0009078153 0.057274714 0.023881242 0.04902749
many -0.09856228 0.0074785626 0.017397365 -0.02313258 0.056457393 -0.10450746 -0.005394655 -0.035492763 0.019296106 -0.0524901 0.007842537 0.024811534 -0.043396894 0.0348487 -0.017897133 0.010285374
being -0.028114632 -0.0051719933 -0.01158862 -0.01332501 -0.045342196 -0.008358547 -0.032505665 -0.0521148 -0.024206726 -0.01592007 0.014632741 -0.0697978 -0.008499227 -0.0054058153 0.007905089 -0.009778287
life 0.11815237 -0.06693458 -0.06595563 -0.08573853 -0.012899945 0.022972422 -0.08934806 0.07569107 -0.04827454 0.029465271 -0.03850301 -0.06680683 -0.06472622 -0.02860743 0.004509032 0.076555446
plot 0.07316697 0.0089686075 0.075888075 0.05865007 0.0066035246 -0.028303504 0.083386615 0.013355068 0.074061066 0.05555999 -0.06411445 -0.11201077 0.070079364 0.0032628344 0.019981973 -0.066679955
never 0.042569317 0.006482628 -0.045093797 -0.056011345 -0.037531953 0.01489504 -0.005939043 -0.016183855 0.00025622966 -0.07423089 -0.013624337 0.013540179 0.024795847 0.05333688 -0.11225131 -0.028373832
acting 0.026659278 0.07189671 0.10184489 0.03764647 -0.100816935 0.1389795 0.06693709 0.0782799 0.01397127 0.01687453 -0.037007403 0.009283321 0.047198765 -0.03256033 -0.061066736 -0.02278987
little -0.0054227496 0.0205094 0.0062030377 0.0182728 -0.004821098 -0.020666784 -0.00091742293 -0.00062076165 -0.006585864 -0.047935873 -0.005083352 0.025980912 -0.018031826 0.010415137 -0.053267404 0.038773887
best 0.020734208 -0.079527415 -0.06321987 -0.13883077 0.029005477 0.06083277 -0.087009616 0.1074064 -0.14690599 -0.024920275 0.045048133 -0.04717629 -0.05288148 0.046336144 0.026552329 0.08083905
love 0.11482652 -0.03718881 -0.09127076 -0.08041448 0.06986652 0.077139154 -0.094406545 0.07806874 -0.012353058 -0.028789617 0.010443593 0.00063652213 -0.093916595 0.022078564 0.03724843 0.00053854386
over 0.012904005 0.07500801 0.042607106 0.078654565 -0.0010871887 0.029189544 -0.012449707 0.05260235 0.095206626 -0.02316728 0.019311806 0.04118764 -0.03456851 0.023817094 0.0358927 -0.029700492
where -0.034447804 0.019496711 0.02908869 -0.04808137 0.011214358 0.035954297 0.011836785 0.01067183 0.0048037404 0.032719865 -0.05830801 0.012466851 0.011011052 0.06621101 -0.04357391 0.016980944
did -0.06635568 0.01581673 -0.004165652 0.035027027 -0.01683164 0.010586141 0.04522609 0.010122915 0.017322145 0.027869752 0.060926754 -0.023256144 0.08158781 -0.008795525 0.045690846 -0.043183204
show 0.02247728 -0.03473508 0.018903866 -0.038714327 0.014899843 -0.019227874 -0.005101832 0.0339098 -0.015516729 -0.0054528085 -0.04120694 -0.040537663 0.017743772 -0.04341789 -0.10262994 0.00031967286
know 0.04243292 -0.022472356 -0.003966636 0.025206484 0.020546608 0.041802775 -0.020093152 0.01575878 -0.00041019917 -0.029125223 -0.016913451 0.04137405 -0.028974032 0.016885377 0.081532106 -0.0027273437
off -0.043390427 -0.020165414 0.018235352 0.07771355 -0.03171599 -0.017664576 0.057169016 0.03813979 0.02377734 0.084604844 -0.0041234996 -0.06490939 0.07543003 -0.058109373 0.082576565 -0.075277
ever 0.0069364863 0.014881414 -0.025242368 -0.01840294 -0.027625296 -0.00067607913 -0.016158663 -0.035962123 0.02712825 -0.045849632 -0.012002386 -0.02758166 -0.05170598 -0.014719017 0.042241473 -0.0742468
does 0.032967564 -0.018997239 0.08601631 -0.021089425 0.0056444714 0.018093621 0.036303286 -0.040119793 -0.016051952 0.044771396 0.0055467803 -0.0634165 -0.015463021 -0.055937782 -0.004995252 -0.04338296
better -0.02075491 0.07574571 0.0998232 -0.01183448 -0.1058909 -0.028360572 0.033090543 0.024821874 0.0514938 0.012106032 -0.08887918 0.045076143 0.047080595 0.0017384035 0.0025386766 -0.017740535
your -0.08949396 0.02512425 -0.020175632 -0.041192744 -0.07646447 0.028393295 0.033798106 0.09200315 -0.060281087 -0.050189994 -0.0043555493 0.030016933 -0.05673057 0.008278235 -0.07381021 0.02455885
end 0.005994326 0.024621127 -0.02079965 -0.013880071 -0.054470938 0.01020178 -0.01673429 -0.04589962 -0.000792959 0.029548986 0.03277953 0.026997881 0.031243583 -0.009767796 -0.112616204 0.017756736
still -0.032103036 0.025497401 -0.04073347 -0.065049306 0.062006045 0.052997436 -0.07684845 0.0054796627 -0.05771495 -0.066200696 -0.0317998 -0.019787773 -0.008698916 -0.0810535 0.04793306 0.06965091
man 0.06902017 -0.061967745 0.0042254357 0.054113187 0.027798632 -0.011251809 -0.005964097 0.045675937 0.04009349 -0.007502708 -0.036882322 0.014520869 -0.024921386 -0.0598941 0.08457349 -0.018859034
here 0.069505356 0.04581904 -0.01837586 0.019711196 0.036390267 -0.093992025 0.024321804 -0.033775583 -0.013634883 -0.007164328 -0.032788936 0.00265757 0.0637536 -0.039610114 -0.08477493 0.057710797
these 0.026448054 0.0288665 -0.013478038 0.01635355 0.036058594 -0.0582941 -0.021608885 -0.009410336 -0.0023912778 -0.007838349 -0.026919318 0.083356954 0.02676567 -0.038257837 0.011348482 -0.028016498
say -0.029464815 0.009321158 0.022181042 0.026337441 0.034569316 0.009162703 -0.01445673 0.04028549 -0.032300327 0.03523094 0.020482961 -0.04691953 0.042162895 -0.029017868 0.051291365 0.0022528828
scene -0.03387715 0.011881194 0.009245258 -0.052626714 0.03653899 0.0408251 -0.03711098 0.042531192 0.0020673287 -0.017062198 -0.07548684 -0.024455458 -0.03509234 0.06658723 -0.04861283 -0.05520269
while 0.04399451 0.026187528 -0.04462734 -0.05853286 -0.004775984 -0.043368272 -0.005770192 0.04953403 -0.0023173033 -0.08217156 -0.019811848 -0.056908984 -0.023225494 -0.0315244 0.07757333 0.03669626
why 0.017472994 0.067796834 0.04203944 0.1164807 -0.088681735 -0.02964847 0.054708723 0.0071774386 0.08039759 0.069826715 -0.038049303 -0.03510442 0.059153438 -0.04388131 -0.010095562 -0.09456667
scenes -0.042044178 -0.01715715 0.035057224 -0.007836895 -0.0151343485 -0.043030497 0.012493678 0.008473117 -0.046962902 0.026027447 -0.01764901 0.031255573 0.060823668 0.039730564 -0.10428208 0.0023162735
go -0.038894616 0.011021102 0.049439404 -0.030130284 -0.021075003 -0.052350778 0.045051653 0.01055561 0.0506234 -0.045146756 -0.019229336 -0.04539438 0.026710847 -0.050944515 0.057065364 -0.009949599
such -0.035963982 0.06416438 -0.007873459 0.028936835 -0.018022964 -0.027798424 0.024094861 -0.053120494 -0.0076878797 0.059125114 -0.050500482 -0.024480056 0.040195353 -0.09027888 0.017733246 -0.011025077
something -0.118404634 -0.039952546 0.026722219 0.05078279 -0.040151015 -0.06253396 -0.05558463 0.00011610088 0.010730701 0.025440529 -0.05582088 -0.07484525 -0.032398526 -0.049967952 0.032432728 0.023919012
through -0.0048861993 0.013948496 -0.0016421155 -0.009863383 -0.06538327 -0.05971697 -0.0071658245 -0.08165155 0.025248878 -0.0106655415 0.072607726 0.08371614 -0.010787086 -0.021590708 -0.033831365 -0.019592881
should -0.018180493 0.015949825 0.06693126 0.01941185 -0.025950348 -0.0072469045 -0.03768104 -0.025156682 0.017442184 0.03736041 0.02777868 -0.11702048 0.02402049 0.05488011 0.02381706 -0.046712685
back -0.015805945 -0.073215656 -0.0013498549 0.028449787 0.049421232 -0.021782925 -0.028518492 0.012025991 0.03539497 -0.014766463 0.046256717 0.075000115 -0.029096847 0.045045145 -0.04729057 -0.04512422
i'm 0.043303203 0.059084825 0.07174332 0.011977648 -0.018258452 -0.044359934 0.024950325 0.062642 0.0763353 -0.035272744 -0.07476804 0.045443494 0.029676687 -0.11041133 -0.0015211627 0.037301015
real -0.029179536 -0.021797363 -0.07859738 -0.04444974 0.031224333 0.040152486 0.029068677 0.08006466 0.016781641 -0.0409694 0.043168772 -0.010010538 -0.023234472 -0.058451276 0.07478741 -0.006434884
those 0.013314063 0.021382716 -0.062855124 -0.0055994494 0.017991366 -0.0008062449 -0.0063287583 0.029990569 0.014248892 -0.002474128 0.015915615 0.040477425 -0.059403285 0.052631013 0.021487644 0.010885348
watching 0.023722125 -0.04089562 0.04455414 0.0061085946 -0.031565405 0.037976168 0.06532003 0.0012591715 -0.012997725 -0.0058765155 0.03859898 -0.052327204 0.026631849 -0.0013764629 0.07469329 -0.0807161
now -0.10419572 -0.058968503 -0.020645218 0.018389245 0.053335484 -0.00607407 0.011936607 0.016976053 0.010006616 -0.060096055 0.05359325 0.03840357 -0.007826395 -0.019363716 -0.06357236 0.039407652
though 0.05223134 -0.009335931 -0.028298393 -0.0683321 0.056951698 -0.02009505 0.023313621 -0.04932101 -0.075685635 -0.02287231 0.017059162 -0.0025527899 -0.07158779 0.070620686 0.08796983 0.057607662
doesn't 0.014864338 -0.0035414877 0.012464193 0.10845947 -0.020943806 -0.03827206 0.011820157 -0.07010047 0.015411972 0.028930428 -0.010678662 0.013607608 0.076235846 -0.07020221 -0.06441726 -0.0032071867
years -0.030604322 0.02913765 -0.023220329 -0.03694865 -0.058294956 -0.099922106 0.06787202 0.0212763 -0.0032953895 -0.01780471 -0.012546813 0.009498418 0.037539545 -0.03469627 -0.030741943 -0.026344376
old 0.018271348 0.013991739 0.0018230735 -0.046811 0.0804577 0.033141904 0.018899698 -0.0059772627 -0.041534796 -0.045096915 0.03542697 -0.015670702 0.027916096 0.022867793 -0.028424738 0.022376217
thing 0.04166444 0.08912908 0.013117829 -0.011636978 -0.03922286 0.009955317 0.011896625 -0.055149563 0.08136725 0.04685211 0.083197966 -0.01738698 0.032616742 -0.0895546 0.0037442986 -0.0961507
actors 0.034215197 -0.029654298 0.010165695 0.037608948 -0.058145165 0.08297892 0.04483537 -0.032912202 0.014561491 0.0366313 0.004213387 -0.03972323 -0.05265717 0.019899756 0.11579872 -0.0017359655
work -0.06173183 0.053517967 0.022813108 -0.044550225 -0.013395098 -0.009812591 0.00065452186 0.023671424 -0.076707125 -0.04358853 0.011161016 0.118239 -0.024097787 0.017360637 -0.006996162 0.05817101
10 -0.11554867 0.061937995 -0.077107325 -0.082145594 -0.07368472 0.106072575 0.0017586979 0.13682547 -0.13852695 -0.09795741 -0.17532495 -0.048708323 0.00950266 0.09749833 0.032280162 0.05559623
before 0.009038363 0.007035469 -0.06633787 -0.0034931353 0.03448787 0.0015113376 -0.0414259 0.08204189 0.041701876 -0.010686301 0.032130983 -0.035081867 -0.04496863 0.059957903 0.014627505 -0.030259548
another -0.013350857 -0.012621149 -0.0022300472 0.0651216 -0.085210524 -0.020233698 0.052231744 0.01000899 0.073024854 0.07222048 -0.01577843 0.060844764 0.07202758 -0.043109525 0.022124015 -0.011024744
didn't 0.039421245 -0.046804275 0.05640469 0.087275416 -0.04943606 -0.08402491 -0.0007676248 -0.0066127377 0.0076557673 0.08248137 -0.0230226 0.016729748 0.05655313 -0.011516991 -0.055015203 -0.0015262774
new -0.08933289 0.04863693 -0.036575954 -0.048553072 -0.03875946 0.060012985 0.08124752 -0.06076061 -0.021090068 -0.018856948 -0.011723312 0.021030132 0.105082124 -0.040118106 0.04195644 0.0019025556
funny -0.04644282 0.035970185 -0.027913326 -0.064586066 0.04079522 0.031759772 -0.11114542 -0.003351543 -0.029352862 0.040260002 0.07413036 -0.10288206 -0.024269452 0.05607231 -0.05651898 -0.016073134
nothing 0.12057096 0.11930865 0.11698567 0.11149096 -0.12543869 -0.03742612 0.13076979 -0.034831464 0.08486412 0.09429706 -0.068146914 0.03598255 0.13358897 -0.08144586 -0.009222259 -0.06772841
actually 0.015954068 -0.038374543 0.08282183 0.08398779 0.011391634 -0.026594765 -0.016164353 -0.026434777 0.026027694 0.047373366 -0.075954564 -0.050609957 0.031017875 0.036441565 -0.035547853 0.021769973
makes -0.028887657 -0.012818208 -0.0060669486 -0.074704334 0.054861642 0.036030103 -0.06974328 0.024861645 -0.082981706 -0.015957827 0.011246502 -0.038741685 -0.050698534 0.03690573 -0.006286937 0.050607685
director 0.012565976 0.09372432 0.0784559 0.031256486 -0.054134272 0.02987672 0.060165398 -0.06932175 0.005210015 0.09942122 0.0029505198 -0.02766824 -0.0375036 -0.005206483 0.026086379 -0.012150949
look 0.0008556442 -0.0016499917 0.02020667 -0.025585426 -0.049675465 0.057319783 0.018695291 -0.028206583 -0.030523902 0.08625932 -0.015859956 0.06664704 -0.0050300476 -0.10454031 -0.044923637 0.007812646
find -0.063718 -0.03059938 -0.08465302 -0.052401356 0.024832444 0.05484192 -0.09728698 -0.0043329196 0.015661279 -0.05331754 -0.008976197 -0.01434245 -0.048214022 0.0093386425 -0.10423858 0.04952571
going -0.021492975 -0.09290746 0.020542929 0.0073978463 0.00663166 -0.054567628 -0.026949057 0.016050404 -0.0030659274 -0.034087244 0.06575916 -0.017734919 -0.00953509 0.068793036 -0.06330709 -0.005069741
few -0.010240351 0.027066993 0.010470997 -0.010914352 0.033665832 -0.07379929 0.034707308 -0.024238475 -0.016727563 -0.025195777 0.04072305 0.10299025 0.0017094509 0.05899726 -0.08402967 -0.034346517
same -0.017888026 -0.0020410141 0.006772443 -0.022604376 -0.040302675 -0.039507985 -0.0124673955 -0.059217237 -0.005758963 0.01966859 -0.021302506 0.013299199 -0.013078088 0.041091785 -0.07644015 -0.010192389
part 0.0008851433 -0.03698408 -0.054442823 0.011570519 0.05987014 0.04748851 0.013456668 0.07253808 0.0347674 0.037991874 -0.04718622 -0.04573022 0.016489783 0.00043771073 -0.09233369 -0.060216364
again -0.057041913 0.027857447 -0.032799944 0.048382357 0.030934492 0.0032202906 -0.021073502 -0.08355078 -0.020453595 -0.024165975 -0.05251668 -0.054787055 -0.038778238 -0.08223018 0.009052382 0.065605626
every -0.06631491 -0.06862968 -0.034911517 -0.048668623 0.030022945 0.045455143 -0.06873222 0.009133269 -0.013041931 -0.03588778 -0.008571989 -0.03293065 0.03931371 -0.05466974 0.007346426 -0.03418638
lot -0.060407918 -0.002877949 -0.052720435 -0.0056664897 0.04506491 0.00012878384 0.0034101564 0.039760675 -0.04249555 -0.0023419345 0.06550652 -0.10095654 -0.054457944 0.048340995 -0.041693643 0.035085503
cast -0.01193638 0.041313536 0.009148698 -0.06766795 -0.0133728795 0.0718926 0.0044403486 -0.010098441 -0.0023662944 0.038896617 0.012657472 0.016410245 -0.048630666 -0.023527091 0.04894443 -0.03957418
us -0.031661574 0.024553012 -0.031205613 -0.07841274 -0.04379116 -0.04391111 0.021158425 0.018124728 -0.0026878326 -0.019400448 -0.033143077 -0.04989256 0.017613098 0.04040768 0.024221295 0.046404295
quite -0.029192194 -0.031710055 -0.06742707 -0.012190941 0.09245804 0.0033351786 0.013562228 0.044448745 -0.01941788 -0.061623685 -0.016623173 -0.082977094 -0.044609383 -0.010675434 -0.045144226 0.017395075
down -0.0027425983 -0.041868195 0.033561647 0.036751747 -0.00659449 0.045514606 -0.022305233 0.013957665 0.0006369045 -0.0472707 -0.011239086 -0.0080063725 0.03547036 0.07639741 -0.12793545 0.0669245
want 0.009350887 0.026326511 -0.00027651765 -0.0023554303 -0.014124166 -0.016334187 0.032857627 -0.034046177 0.051830325 -0.021369634 -0.05242115 0.0727314 -0.045775946 -0.036041517 0.064858235 0.026247667
world -0.10423784 -0.053234406 -0.025732543 -0.06801092 0.051488936 -0.016407695 0.024116443 -0.036155984 -0.025487017 -0.0074339304 -0.04501333 0.0019353933 0.00019531706 0.06721544 -0.0065475395 0.023078686
things -0.02345647 -0.046871614 -0.03994927 -0.0051496304 0.022207579 0.054141477 -0.038537674 0.05214396 0.025613537 -0.04051461 -0.032899696 0.0017947253 -0.025322236 0.07523858 0.016039155 0.001466061
pretty 0.04899001 0.09048527 0.08188595 0.07287479 -0.041624703 -0.0089698825 0.049148854 0.011392021 -0.02004624 0.0037864738 0.0036442135 -0.051373392 -0.014836829 0.02606599 -0.026258696 -0.074746
young 0.069232814 -0.0375625 -0.017702209 -0.04536679 0.011603729 0.093735665 -0.007502299 0.0733468 -0.014210195 -0.036588915 -0.054972876 0.012583016 -0.046073202 0.053392213 0.03768031 -0.025645496
seems 0.08974523 0.036222313 0.0405035 -0.0051381225 -0.04385884 0.038075123 0.026252806 0.026488826 0.025009846 0.06839658 0.007645552 -0.04332796 0.011123811 -0.020789871 0.03947405 -0.10488224
around 0.02406249 -0.064647585 0.025910236 0.0016203545 -0.046823025 -0.017183559 -0.039622024 0.03265917 0.004249686 -0.037214935 -0.048427537 -0.035734456 0.019516854 0.021502545 0.09420414 0.04577334
got -0.0717989 -0.075584695 -0.0675695 -0.08275172 0.013735842 0.062337067 0.0062060338 0.060369242 0.022100147 -0.023695074 0.05085602 0.010639715 -0.053735763 -0.025431385 0.1077747 0.03179393
horror -0.056967717 0.039122283 0.041077014 0.06286063 -0.049289305 -0.023310576 0.02421251 -0.011555871 0.04799494 0.0121716345 -0.11662636 0.03036238 0.028125096 -0.06343673 -0.0843982 0.09745404
however 0.05433623 -0.007521708 0.032403033 -0.0027664325 -0.045538828 0.08167547 -0.008322448 -0.02042954 -0.026341151 0.042357076 -0.036041036 0.011413366 0.012634007 -0.040100094 0.037063316 -0.04974365
can't -0.049643863 0.0398848 -0.061252814 -0.045454834 -0.0036436575 0.034786355 0.0031354588 -0.046974085 -0.022167316 0.022007387 -0.057665978 -0.043014213 0.014296426 -0.04010065 0.089819945 -0.02867762
fact 0.012767443 0.004461095 -0.043544054 -0.01763774 0.052156802 -0.00855091 0.013564625 -0.028058067 -0.038462684 0.011557737 -0.03051475 0.072544605 0.010092623 0.035028085 0.01908016 -0.0030393784
take -0.06878921 -0.01728311 -0.087977 -0.0774834 0.028889982 0.015501464 -0.0691771 0.037534963 -0.024252651 0.017540274 0.00662756 0.035212234 -0.00980211 0.035437927 0.021331245 0.0007347716
big 0.011026812 -0.05067133 -0.045186814 0.00500305 0.038598973 0.010821087 -0.03459374 0.047222663 -0.05228842 -0.02022865 0.019892307 -0.015198746 -0.10560714 -0.018247101 0.010693817 0.00557822
enough 0.08248122 0.094962664 0.052651253 0.09628413 -0.041060675 -0.023188433 0.038448535 -0.05849845 0.024215931 -0.010742564 -0.1004994 0.004196246 0.015240001 -0.07828352 0.03080496 -0.05691799
long 0.023642477 0.034079112 0.052694242 0.029144386 -0.065369986 0.04713691 0.07036489 -0.013972825 -0.0035218194 0.018431086 0.035596505 0.021419004 -0.02577956 -0.08551415 -0.034445487 0.0027048474
thought -0.010654199 -0.06440879 -0.011805657 -0.022479387 -0.010068297 -0.059382148 -0.008574217 0.0395923 -0.0398647 -0.08505188 0.00071832427 -0.00061680045 -0.042600203 -0.023536982 0.05043654 0.03232029
that's 0.0019764516 -0.002257221 0.029680153 0.02413365 -0.037663158 -0.035896562 -0.0043781605 0.0067221248 -0.026994547 0.04075388 0.045662925 -0.023646118 0.025741715 0.0012432955 0.013490167 0.021870226
both -0.058123253 -0.069735676 -0.093898445 -0.004226409 0.010414005 0.029735591 -0.085180245 0.0834361 -0.04317215 -0.017411405 0.09653964 0.02401555 -0.026929365 -0.014182572 0.045544527 0.04629107
between 0.06101456 0.042035803 -0.02504618 0.016441274 0.034395453 0.1015329 -0.05610288 0.027435398 -0.05377064 -0.057412114 -0.045187403 0.024440324 -0.09707136 0.01749216 0.09116285 0.047147214
series 0.10222747 -0.047377855 -0.08039925 -0.0053226817 -0.007556406 0.087667696 -0.06955157 -0.027434606 0.04443571 0.04061463 0.009698393 -0.024172442 -0.057351977 0.048445653 0.01905958 0.0073156045
give -0.052325454 -0.075546995 0.009094675 -0.004654004 0.0014994077 0.025603576 0.022718024 -0.0070942836 -0.0017611269 0.022136865 -0.03185504 -0.0067272047 0.03996554 0.00863777 -0.019855987 0.012849354
may -0.026990723 -0.11573544 -0.025062867 -0.03959885 0.004783781 0.0072851605 -0.052082606 0.06372882 -0.0404508 -0.029576108 0.051931586 -0.025529915 -0.0016536907 0.08757037 0.048557494 0.032528404
original 0.038325995 0.02262435 0.036659233 0.10459678 -0.008848707 -0.023786902 0.064504996 -0.050689943 0.02827839 0.059778374 0.002049729 -0.03678762 -0.014193321 -0.0029255191 0.0053705405 -0.078276664
own -0.07878551 -0.03920013 -0.03600476 0.02125619 0.0491727 0.08407524 -0.017964918 0.05118339 -0.019495746 -0.028413797 0.070126325 -0.040387 -0.0041462663 0.038168233 0.078074224 0.009850767
action -0.020081678 -0.033786796 0.009290732 0.010730323 0.021904254 -0.023347002 0.0026381328 -0.011407758 0.034305125 -0.05584744 0.055476896 0.07006069 0.005198743 -0.003411743 0.044554174 0.032300092
i've 0.019940866 0.015759757 -0.04771415 -0.015398703 -0.018347776 0.0045126877 -0.050963555 0.015454206 -0.026848456 0.011388144 0.031939074 -0.027998379 0.013994847 0.06463353 0.1028961 0.037502613
right -0.029147044 -0.0033423163 -0.05272638 -0.026122024 0.011531643 0.0022995784 -0.109485716 0.08270645 -0.108806655 -0.06875918 -0.0034390737 -0.07237509 -0.015461235 0.0013437232 -0.020437174 0.038024988
without -0.037343092 -0.043859366 0.0076585542 -0.032413386 0.030931419 -0.022646073 0.056841254 -0.0035995888 -0.007205389 0.04273041 -0.040040966 0.06840883 -0.030567164 0.010649155 0.09547964 0.016870331
always 0.045281503 -0.06031399 -0.06828815 -0.022098819 -0.02937715 0.010885486 0.013648421 0.011394873 -0.073308595 -0.050060447 0.036414675 0.07834082 -0.034122273 0.036178682 -0.009176043 -0.007872958
times 0.0057076425 0.03893403 -0.07325035 -0.042576935 0.06393639 0.09045853 -0.027303379 -0.019163767 -0.06320826 -0.017134853 -0.014765991 -0.02457278 -0.053180195 -0.016856734 0.11519464 0.026842566
comedy -0.023170257 -0.014115872 -0.022183746 -0.07782056 -0.06926724 0.021858571 0.05414157 -0.014191374 0.019897202 0.012524433 -0.030313533 0.05852612 -0.051881302 0.020848166 -0.016851442 0.0840186
point 0.033075884 -0.03573623 0.110808626 0.053013355 -0.017805077 -0.03607061 0.0752193 0.016706329 0.023887651 -0.0064323526 -0.062626556 0.0027845018 0.072063036 -0.049143683 -0.023636317 -0.09847219
gets 0.021809572 -0.0021661564 -0.0008343473 -0.01607242 -0.015432017 0.043885116 -0.0031536517 -0.02029865 0.0058169924 -0.047636308 -0.10163608 -0.0018716424 0.012337954 0.011703351 0.02762147 0.02419138
must -0.008305186 -0.0071841804 -0.08294098 -0.061994564 -0.058618806 0.08450119 -0.07889555 0.0069029243 0.027584357 0.021364616 -0.07882153 -0.022697423 0.026767628 -0.024119642 0.03562996 0.06847964
come -0.02361794 -0.032837164 0.0127614895 -0.033234328 -0.011497869 -0.1760065 -0.01239973 -0.0037047993 0.002340268 0.04144311 0.04100418 0.052820694 0.02628415 -0.039538965 -0.031910066 0.017246893
role -0.017361978 -0.02232924 0.024235053 0.0041756188 0.044249807 -0.04382756 0.07073207 -0.054677494 0.010861811 -0.045966286 -0.012836494 -0.0048256125 -0.043547653 0.012457616 0.06224906 0.0051654615
isn't 0.0029569734 0.020946171 -0.004720811 -0.010750883 -0.06424204 -0.063629806 0.012707617 0.060078166 0.028434373 0.022787368 -0.008313101 0.012511632 0.05168603 0.016211187 -0.04623498 0.0595721
saw 0.031388383 -0.0008440825 0.001180297 -0.03918154 0.028871316 -0.061712705 -0.0010589033 0.023571566 0.035223827 0.048180267 -0.0012368878 0.03390409 -0.014079523 -0.015805764 -0.13284971 0.054016255
almost 0.010120868 0.030022325 -0.018468043 -0.0022045102 -0.050018873 0.064055055 -0.021726366 -0.063141234 0.026419846 0.008208274 0.004600017 -0.05195726 0.0069507905 0.05175239 0.11779621 0.04234755
interesting -0.013606308 0.0629188 0.018378688 0.061801597 -0.086738124 0.036908638 0.08629161 0.04292921 -0.049932055 0.0007529604 -0.07601799 0.09794866 0.0030407007 -0.03306882 -0.08466846 -0.06044883
least 0.038350258 0.076568395 0.06384304 0.08042101 -0.022162732 0.02807255 0.043175254 -0.015852902 0.059560232 0.076928675 0.0796656 -0.03454105 0.0045912336 -0.015403589 0.015443608 -0.03418826
family -0.038002905 -0.06356509 -0.06084086 -0.046359032 0.011516203 0.046266623 0.0025336742 0.009400441 -0.09015957 -0.066962 0.06492822 0.020400014 -0.017053 -0.04284711 0.091632366 0.043598283
done -0.07366078 -0.031216059 -0.055881433 -0.005606317 0.047286082 -0.11724472 0.017944073 -0.04278298 0.020841284 0.038133435 0.061464593 -0.032863136 0.02447831 0.026856788 0.05510178 0.018081838
there's 0.004667395 0.06635676 0.08056766 0.0605451 -0.049638823 -0.02206276 -0.037191596 -0.027939467 0.05686916 0.0061945915 0.014920436 0.009286153 -0.0063093216 0.0355263 0.026683796 -0.05031042
whole 0.038952377 0.08482786 0.08327157 0.0352026 -0.0016636944 0.09257077 0.03095401 -0.05676762 0.08259983 0.031137506 -0.071392015 0.124528915 0.020296577 -0.0772765 0.019678451 -0.07883679
bit -0.057258226 -0.017321972 -0.07458986 -0.0793042 0.065994024 -0.053020053 -0.027646916 0.025557254 -0.020237422 -0.079763144 0.07313409 0.03733997 -0.061746128 0.019218298 -0.06723975 0.0054224776
music -0.020603504 -0.009499527 -0.078276604 -0.05027443 0.035170656 0.019701442 0.019411078 0.039311014 0.017459383 -0.05302921 0.047657672 0.038919497 -0.103564665 -0.0466874 -0.04838497 -0.035352513
script 0.05807138 0.036925364 0.07580467 0.12600477 -0.056229822 0.071638 0.06800011 -0.08995627 0.028547714 0.101013966 -0.04592019 -0.09527855 0.10069343 0.076737545 0.06447717 -0.08005404
far 0.07401993 -0.0397424 0.033113766 0.07645568 -0.03531552 -0.07080355 0.053600404 -0.033123095 0.008284387 -0.012513783 -0.045219373 0.017395834 0.0089091575 0.0005457858 -0.010000871 -0.0498889
making 0.017320508 0.064822115 0.03250421 0.086038515 -0.048222225 -0.011998888 0.019397274 -0.009275065 0.016457705 0.08466476 -0.044730198 0.02616997 0.045236286 -0.0075839646 -0.118565485 0.01187475
guy 0.015773116 -0.038087323 0.007903652 0.06149905 0.024415001 -0.05199794 -0.012555546 -0.0149047775 0.056883994 0.00553841 0.048745517 -0.06463786 0.044630323 0.06387917 -0.017856019 -0.060594227
anything 0.065450914 0.04822713 0.045103382 0.017693475 0.026730752 0.051395442 0.011070264 0.017711587 0.04592727 0.05527705 -0.04870381 0.023996096 0.075865544 -0.026564524 0.0013128367 -0.054513298
minutes 0.05986821 0.0029991958 0.04228553 0.033265267 -0.08576219 -0.02239233 0.106533796 -0.026218062 0.09237711 0.057406053 -0.03707062 -0.04358508 -0.0005353701 -0.07756918 -0.061161663 -0.058815487
feel 0.024326455 -0.03596859 -0.028052459 -0.0945608 -0.00695296 0.10429694 -0.05651192 -0.012761197 0.021368809 -0.08042933 -0.0068430104 -0.01553308 0.0043201977 -0.023751376 -0.04100325 0.0345852
last 0.00076217024 0.053853825 -0.08664902 -0.029315751 0.028320976 -0.0045742285 -0.03817186 0.063599296 -0.053255625 -0.04691132 0.05146059 0.065218076 -0.046581607 0.04450158 0.017186448 0.06476174
since 0.0003979013 -0.020839809 -0.035680678 -0.026477758 0.038558606 -0.032949876 0.054771237 0.047339823 -0.05889635 0.0021326055 -0.093610965 0.062088702 -0.0048000664 0.06620324 0.005124298 -0.011512022
might 0.056650963 0.10179092 0.0678982 0.10836732 -0.034430288 -0.029774928 0.018722959 -0.05117142 0.038492706 0.053498726 0.033161987 -0.02704189 0.06768327 -0.051414132 0.06896017 -0.10258681
performance 0.17536445 0.059485897 0.036752965 -0.015137837 0.03642664 -0.06676693 0.027466254 0.005877087 -0.034144863 -0.008928049 -0.049691398 -0.0010962309 -0.06938518 0.007674651 0.06646468 0.036543734
he's -0.022580609 0.007746653 -0.01896534 -0.010486614 0.04267843 0.021354202 0.003793931 -0.026736071 0.030514857 0.06585816 0.04114456 0.009545843 0.035784103 -0.032081768 0.0061427867 -0.059153523
2 0.024791261 0.040168174 0.023805436 -0.023543289 -0.006368897 -0.09639847 0.035934888 -0.05567 0.024909277 0.052056532 0.025617864 -0.03213477 0.058447137 -0.0029396433 -0.031388514 -0.017539358
probably -0.03994897 -0.033979513 0.04523968 -0.034324754 0.03972751 -0.007427343 -0.02264041 0.05407814 0.0037277532 -0.012640019 0.041839685 -0.03691671 -0.036288336 0.05616973 -0.0495977 0.02739712
kind 0.034170993 -0.014374921 0.066279516 -0.015105031 0.058804903 -0.04145953 0.048094496 -0.041520156 -0.008347082 0.027056513 -0.05412368 0.04861386 0.008965217 0.012309912 -0.13132668 0.0029452653
am 0.052010186 0.053096082 0.02220538 0.004909358 0.0076745423 -0.016701613 -0.010746796 0.01810325 0.029568797 0.03394989 -0.037433963 0.027050424 0.05853782 -0.03697978 0.030436896 0.0036302947
away 0.0033068277 -0.0062549743 0.022201372 -0.0437633 -0.03241012 -0.015605432 -0.009767335 -0.02691098 -0.0007720051 0.011152271 -0.013945905 0.043363117 0.040650357 0.018372824 -0.057572234 -0.03846018
yet -0.024227772 -0.055536732 -0.026522318 -0.039823484 -0.035235517 0.0394538 -0.014866276 0.056908235 -0.027480224 -0.0059824134 -0.017205197 -0.044408962 -0.026331583 -0.06315035 0.0008397504 -0.041373916
rather 0.0051735598 -0.05893718 0.0168057 -0.02240694 0.082683764 -0.0680034 -0.02575248 0.045094993 -0.040266998 -0.013543004 0.05361966 0.06344931 0.00017581061 0.07520076 -0.10323264 0.03765039
tv 0.019340333 -0.024966033 -0.058983326 -0.027858922 0.074138895 -0.041241694 -0.050593853 -0.01816892 0.050643187 0.029253239 -0.0216648 0.011391966 -0.01420362 0.0032830508 0.03086941 0.025335
worst 0.13570501 0.16549861 0.16165142 0.119358286 -0.08320766 0.07040247 0.16090758 -0.03874774 0.081010856 0.14544661 -0.11812883 0.08605271 0.18766305 -0.09533512 0.020616848 -0.17248756
girl 0.030115964 -0.010780393 -0.0015831366 -0.009418031 0.005173853 -0.10529845 0.018299507 -0.07045328 0.039946396 0.03922618 0.034003455 -0.04328166 0.06635272 -0.03950533 0.03449846 -0.00944016
day 0.041961446 -0.04633987 -0.03971851 -0.03322751 0.086078 0.023010511 0.038609926 0.01687074 0.014817575 -0.008133699 0.01986255 -0.03244974 0.010185156 0.06777717 -0.0039912243 0.025502842
sure -0.087102756 -0.0148050245 0.028911624 0.019768296 0.004650867 -0.041999485 0.03193254 0.025588006 -0.023392688 0.08962881 -0.0338534 0.08355628 -0.011434638 0.036285948 -0.0579455 0.06769113
fun 0.024984777 -0.09309455 -0.101277016 -0.08405182 0.07779097 0.052501354 -0.04311928 0.087720774 -0.077816285 -0.048002638 0.057427265 -0.05062237 -0.09883356 0.04700409 0.0049087727 0.0041454784
hard -0.034409303 0.03179107 0.034595925 0.025730468 0.030146018 -0.044719256 -0.05448962 0.014502602 0.018884938 -0.00645293 0.04014636 -0.0011366019 -0.010674765 0.03246653 -0.015670463 0.06340392
woman 0.017264621 0.015359092 0.068023525 0.07083545 -0.033282906 0.023507439 0.020646386 -0.012190321 0.09148391 0.022794075 -0.04724071 0.013551425 0.0060597905 -0.037461076 -0.034045305 -0.010327426
played 0.059304036 -0.03558281 -0.049500845 0.041138314 0.059629027 0.06461307 -0.06412805 0.01581539 -0.043509834 0.050344307 0.032060586 -0.042265415 -0.0115162 0.049357686 0.08457177 0.055096533
each -0.055032887 -0.10073749 -0.05073412 -0.11657894 0.04711679 -0.036805812 -0.05358312 0.10991598 -0.041504104 0.020820603 0.038217913 0.06504096 0.020319764 0.034321606 0.070911415 0.057817213
found -0.016845427 0.028613035 0.03460886 0.018856402 0.04556501 -0.0064810924 0.02071787 0.018258873 -0.050229333 0.07175722 0.013998434 -0.051748138 -0.056870885 -0.05549277 -0.09278291 -0.007304555
anyone -0.0051629664 0.02994383 -0.034017004 -0.011609286 0.030506715 0.025089908 0.0039691916 0.044251136 -0.012822796 -0.033338744 -0.043936234 -0.020408278 -0.014701855 -0.060560104 0.039019577 0.0025318693
having -0.007670639 -0.025082143 -0.064107716 0.014776183 0.032944437 0.058021754 -0.09533507 0.10263693 -0.051945854 -0.07905904 -0.018959379 0.019867314 -0.015270255 0.08962955 -0.06701644 -0.032710336
although 0.06789364 -0.0013968701 -0.03776296 0.00044300337 0.013534957 -0.090597294 0.001305504 -0.021017771 0.023625325 0.027304435 -0.009234295 0.06933973 -0.0559603 0.009377706 -0.0875963 0.025317105
especially 0.05342401 0.0035811523 -0.079652086 -0.1195563 0.0472919 -0.056433037 -0.10147369 0.052727025 -0.111626275 0.008207659 0.040483966 -0.040986903 -0.026427604 0.08341257 0.02099812 0.06797476
our -0.0756848 -0.059283286 -0.038438514 -0.026406178 0.019922588 -0.045327507 -0.0054657734 -0.03230784 0.021175148 0.016707653 0.04003907 0.07984996 0.008816061 -0.0038674886 -0.016295226 0.06372913
believe -0.057725906 -0.0012844709 -0.00580947 -0.034655835 0.017064001 0.06042856 0.01629546 0.06444916 -0.06128348 -0.010456181 -0.009921512 -0.042631768 -0.0004469865 0.04117993 0.037047133 0.07604801
course -0.0011805085 -0.011610377 0.03758987 -0.059899546 0.065666646 0.030353129 -0.050017416 0.069759406 0.039524365 -0.027440427 -0.023516828 -0.08623098 -0.049703978 -0.023572467 -0.054696728 -0.005964062
comes -0.06309511 -0.04645756 -0.00039057797 -0.061407402 0.0016688294 0.048785526 0.0106532 0.06284362 -0.03038721 -0.053594977 -0.006458101 0.0077913455 -0.06361307 -9.722808e-05 -0.009786395 0.10984105
looking 0.056436725 -0.013189244 0.06888959 -0.015336012 -0.02163608 -0.04367708 0.063591465 -0.022053381 -0.0013058227 0.004503272 0.051112864 -0.06715785 0.026429012 -0.07420021 -0.06933726 0.0026122017
screen 0.02823179 -0.02731555 0.019952953 -0.08544448 0.01874334 -0.007918977 0.017171612 0.027763138 -0.0055004605 0.006769528 -0.023355898 0.08625314 -0.070868656 0.077904664 0.029395675 0.03676553
trying -0.023961885 0.035594177 0.012103068 0.012670646 -0.0018199 -0.10089406 0.043975458 0.03292375 0.045566846 0.052491155 -0.029749291 -0.06889682 0.060037892 -0.022967711 0.07180886 -0.0063401046
set -0.042729445 0.027782831 0.014427245 0.03809874 -0.037046645 -0.030503234 0.031047428 -0.008113809 -0.00028129428 0.013256586 -0.06521263 0.09407116 0.030230882 -0.06970082 -0.020435572 -0.01936896
goes -0.028924726 0.061265297 0.04837171 0.03735422 -0.013113775 0.04929929 0.0012303187 -0.08009173 0.02382205 0.0022731102 -0.051931396 0.031147292 0.047842994 -0.024162602 0.02480943 0.007812319
looks 0.042996198 0.014296097 0.08048326 0.06867092 -0.012211979 -0.025076559 0.050576538 -0.053792063 0.018466933 0.019891692 -0.034774948 0.015936514 0.0889268 -0.04887418 0.04635604 -0.110104114
place 0.00991247 0.0050436836 0.033994425 0.04400958 -0.011385977 -0.017138943 0.006049876 -0.01447791 0.036498014 0.05348172 -0.07150839 0.028105216 -0.022088299 -0.070932895 -0.100972235 -0.05747867
book 0.025218409 0.015860444 0.036703035 0.05549043 -0.029815093 -0.06475681 0.053806677 0.03359398 0.10075056 0.010359927 -0.13111621 0.06497008 -0.0071181217 -0.053495534 -0.039288778 0.0032032032
different -0.048851825 -0.001793134 -0.038448423 -0.011308248 0.048453722 0.07663636 0.005954959 -0.01460493 -0.007860774 -0.08255928 0.05375063 -0.011635843 -0.07609314 0.042487133 0.021446088 0.07283077
put -0.037014596 -0.015810182 0.047464132 0.05425605 0.011511371 -0.046789438 0.008402688 -0.019847369 -0.015218545 0.0054122307 0.048397787 -0.02323673 -0.06372965 -0.03162013 -0.11662811 -0.042005148
ending 0.06839613 -0.0086632855 -0.0027157657 0.0014611873 -0.03593095 0.023847679 0.015688535 -0.057992697 -0.01002438 0.013516752 0.00097553624 0.02119232 -0.04537182 0.01721831 0.028785454 -0.005600188
money 0.0106069995 0.08018269 0.11981457 0.0060906745 -0.08639323 0.0012145919 0.071706675 -0.03355215 0.01872953 0.0055682496 0.012782325 0.030816667 0.011929772 0.058399364 0.04351166 -0.07948017
maybe -6.552201e-05 0.061022725 0.0324046 0.01217373 -0.02417035 0.064807944 0.0034432532 0.079627655 0.034894243 -0.00070487283 0.034468945 -0.062265098 -0.008756513 0.013965352 -0.026089402 0.025244774
once -0.034810133 -0.075065285 0.0188225 0.023336042 0.072442606 -0.024343481 -0.0027665866 0.03203516 0.022568943 -0.014070548 -0.018567286 0.014930873 -0.012253839 -0.05628879 -0.061569046 0.023187632
sense -0.015329817 0.014851202 0.04369075 0.0019784917 -0.091910735 0.008017465 -0.06351417 0.074036114 0.0041297018 0.035988286 -0.074058846 0.020929486 -0.012202034 -0.035265155 0.06410246 -0.0063310624
reason 0.038498305 0.028376218 0.08355041 0.027276041 -0.0149292275 0.009000486 0.05580243 -0.08865978 0.038598515 0.057207 -0.034370106 -0.048526313 0.099081576 0.022158874 0.0148054985 -0.003279255
true -0.07323067 -0.0766853 -0.14493126 -0.048235904 0.018978212 0.03971062 -0.075106345 0.03946924 -0.021683618 -0.11828923 0.031061254 -0.06252579 -0.019782765 0.038330104 -0.03361268 0.013163611
actor 0.0019688809 0.04155793 0.04104533 0.07289529 -0.018933479 0.021049485 0.08999292 -0.03363091 0.06619137 -0.02999671 -0.07024569 0.04528584 0.09087022 -0.058881953 -0.0063627777 -0.051703855
everything 0.006314444 -0.029222684 0.0033299078 -0.07104755 0.070267074 -0.018443795 -0.02973794 0.04840225 -0.017224316 -0.029830692 0.048673548 -0.035833992 -0.07292538 0.036633432 0.073394775 -0.039801195
wasn't 0.030068079 0.022016866 0.024837812 0.012315005 0.027990008 0.055161703 -0.00789803 -0.06385454 -0.028219854 0.06717433 0.016863963 0.014427369 -0.0014397035 0.021079378 0.09774679 -0.047345355
shows 0.04486383 0.023605164 -0.1248503 -0.13255557 0.08709111 -0.020270908 -0.0051044794 -0.015908502 -0.12757544 -0.044996537 -0.047672104 0.013434834 -0.107234016 0.05296037 0.07652109 0.010310212
dvd 0.014135005 -0.06625763 -0.07432358 -0.020748354 0.026761526 0.009992354 0.009242594 0.03486317 -0.09820915 0.009534532 0.07843276 -0.026923612 -0.0061842096 0.00045958036 0.0059167542 0.042722717
three 0.0592621 -0.021908315 0.057820845 -0.013472347 -0.076747805 -0.07157274 0.027787043 0.040436372 0.012921012 0.05984911 -0.018475981 -0.026087612 -0.06941775 -0.044978324 -0.026451884 -0.024309186
worth -0.09634945 -0.012294871 -0.04209192 -0.075899005 0.022578156 -0.015849436 -0.03330415 0.040591586 -0.07073958 -0.045414142 0.078607544 0.043788873 -0.010484489 0.056074396 0.038355153 0.10463203
year -0.06988448 0.0064270375 0.022835745 -0.04780962 0.014687028 0.024033476 0.03836646 -0.004200241 -0.006771427 0.030231968 -0.03818631 0.050105974 0.019227097 0.038500406 -0.046661478 -0.03055814
job -0.06216989 -0.08990304 -0.10431111 -0.035697266 -0.018145965 0.09304474 -0.009119774 0.03711984 -0.043405656 -0.03265907 -0.0083935745 -0.025769297 -0.100967295 0.10183237 0.021495372 0.11407898
main -0.034311872 0.05372163 0.04215734 0.008331079 0.0013583292 0.07278167 0.05757936 -0.0151203405 0.048404533 0.05977107 0.027093682 -0.03806543 0.04849069 0.043110993 0.052141655 -0.031734437
someone 0.06106082 0.0926998 0.038884975 0.075248875 -0.05487028 -0.07210231 0.04498306 -0.10079124 0.07708128 0.0958529 0.023554318 0.03425821 0.112186015 -0.07996976 0.062429033 -0.040505547
together -0.091492794 -0.08385532 -0.07099063 0.0036912658 0.06094084 0.10890403 -0.06853934 0.063267544 -0.086200476 -0.11888399 0.048748255 -0.05608966 -0.046424434 0.04001668 0.055442706 0.06968096
watched 0.05028102 0.017410442 0.05720135 0.0970352 -0.022023184 0.012173883 0.029598078 -0.09451707 0.09172933 0.08986943 -0.07141072 0.05148676 0.00546314 -0.091614544 0.06894085 -0.031844478
play -0.008060792 -0.04597145 -0.05444115 -0.0137402285 0.04112099 -0.019649416 -0.08548006 0.031269003 -0.0954196 0.011868483 0.010012499 -0.048402153 -0.0075471685 0.003697932 0.034942105 0.073928244
american -0.004601858 -0.08029838 -0.024683503 0.009981965 0.090037994 0.119739056 0.04432011 0.07328954 -0.021796178 -0.08047776 -0.014570705 0.022186978 -0.09945876 -0.03706806 -0.07359279 0.043206424
plays 0.046154216 0.03429723 0.027881863 -0.02330296 -0.020836366 -0.08487094 0.06260136 -0.100702375 -0.0005023243 -0.004211254 0.06974867 -0.057634432 -0.02517387 -0.03078602 -0.08362233 -0.06319691
1 0.13081661 0.09542861 0.12009812 0.06697659 -0.02717385 -0.036886703 0.09802612 -0.05906496 0.13519733 0.09820382 0.0026950063 0.015361909 0.07508707 -0.0374755 -0.0118425675 -0.0956524
said 0.021118604 0.112591185 0.11844409 0.035927884 -0.068890125 -0.100743316 0.055340018 -0.034202963 0.079930186 0.073761314 -0.14105327 0.0066135223 0.081436396 -0.0018104988 -0.019479485 -0.023125842
effects 0.004849385 0.075001895 0.0016452011 0.06776955 -0.026832085 0.0481983 0.021292327 0.020271393 -0.034009017 0.04714236 0.0043487195 0.1111094 0.051744647 -0.07003062 -0.036892142 -0.03048933
later 0.02164423 0.0021651427 -0.0062609776 0.020884657 -0.052456163 -0.057299845 -0.040424105 0.04677393 0.03349876 0.0026968908 0.008836978 0.02368248 0.00549978 -0.02887804 0.035422936 0.026577715
takes 0.0022126432 -0.05658051 -0.09340569 -0.04281875 0.00024875122 -0.027305713 0.025032515 0.038953293 -0.04587153 0.003114052 0.05810103 -0.10379956 0.007878406 0.026297148 -0.033636004 0.0074693495
instead 0.08869664 0.018919334 0.09924501 0.102202825 -0.031701133 -0.07801251 0.035483196 -0.007585257 0.098479785 0.06032402 -0.058011897 -0.01231727 0.05789417 0.014227344 -0.045593895 -0.086677656
seem -0.02255466 0.115342885 -0.004983087 -0.00808133 -0.02216071 -0.03258841 0.047546174 -0.04884818 -0.005175288 0.055211652 -0.08059841 0.08122066 0.013477375 0.019307774 0.041871842 -0.05552256
beautiful 0.07680652 -0.042377215 -0.09399709 -0.059861887 0.07647839 0.04058707 0.033231787 0.041567683 0.013173577 -0.07175422 0.0059634116 -0.0017878684 -0.036813848 0.021445313 -0.001957294 -0.0015143916
john 0.039882757 -0.033921536 0.032595385 -0.018889654 -0.014135028 -0.12509385 -0.058138926 -0.02819304 -0.0278494 0.008896982 -0.028599046 0.02440717 -0.028016329 -0.014574212 0.05845189 0.023150317
himself 0.08125342 0.0032127239 -0.02380279 0.07078078 -0.03229049 -0.033290535 0.03454154 -0.046324536 -0.009175943 0.047419444 -0.04521105 0.020753631 0.007289945 -0.04461785 -0.050057676 0.026686754
version 0.018101927 0.009842069 -0.013880285 -0.0361327 0.004015132 0.0035776107 0.00055420573 0.027575076 -0.048085146 -0.05955617 -0.018440269 0.037386406 0.046979327 -0.045087114 0.016740743 -0.042032894
audience -0.010962078 0.04175512 0.020012327 -0.004538868 -0.047742568 0.0028250439 0.009476172 0.0016226219 -0.016520659 0.052209415 0.038740348 0.047984943 0.01224815 -0.05468333 0.03958515 -0.053016175
high -0.027915196 0.0068420013 0.0024098034 -0.030571869 0.050382666 -0.03482373 0.016224524 -0.003915858 0.008275566 -0.027556993 -0.019442894 -0.010143284 -0.104644775 0.015880316 0.05687342 0.028340198
house -0.0100385845 0.06482606 0.010375439 0.036674894 0.004560263 0.045931444 -0.039969817 0.04931163 0.022512224 0.0052318405 -0.02760993 -0.0152437305 -0.016659375 -0.0021621254 -0.010201979 -0.02602909
night -0.0064682146 0.025962852 -0.042327262 -0.019988993 -0.0006417053 -0.05006643 0.022455765 -0.04617086 0.009155646 -0.06790642 0.019082313 0.01610384 0.022462932 -0.03963038 -0.049139917 0.063182466
during -0.0072942916 0.008144106 0.014104785 0.05994999 -0.0034873353 -0.002370875 -0.01831374 -0.006717657 0.041332044 0.016069395 -0.0005885449 0.056197733 0.055323437 -0.054267883 0.033961743 -0.056728926
everyone -0.0009461466 -0.037355386 -0.062820256 -0.06958002 0.053511284 0.05920101 -0.066798344 0.04018442 0.035740536 0.00064358 -0.067729145 -0.05648398 -0.080793396 -0.0538368 -0.04975794 0.033099864
left 0.0636816 -0.04018704 0.07910733 0.0040314067 -0.05289862 0.056559134 -0.0113209225 0.013228567 -0.018529734 -0.015092987 -0.05084201 -0.014167486 0.058229707 0.03546354 0.03522206 0.0046692304
special 0.057569336 -0.044658754 -0.027301233 -0.044145662 0.101423115 0.064197935 -0.096629575 0.05306657 -0.033894945 -0.065814815 -0.014036465 -0.044162255 -0.024905846 0.0069557168 0.008565591 0.048013575
seeing -0.044372726 -0.007612513 -0.033365335 0.027121738 0.047606748 -0.009369707 0.026167866 0.03523131 0.053686503 -0.021831194 0.0007736806 -0.065916635 -0.0028793556 0.031964265 -0.022398839 -0.0611866
half 0.039005443 0.07498585 0.10195109 0.02629113 0.005103247 0.09481852 0.032444146 -0.045453753 0.0839864 0.019182043 -0.014387068 0.06274442 0.03533087 0.0056750034 0.024873618 -0.039626535
excellent 0.0857922 -0.11143357 -0.11463841 -0.1363149 0.054067634 0.04080364 -0.14937426 0.10414343 -0.112855226 -0.11350966 0.041187793 -0.042574335 -0.16191857 0.12613584 0.030882303 0.08404311
wife -0.017749479 -0.04074243 -0.042506382 0.012971946 0.009114771 0.04590018 -0.05098466 0.058398888 0.011024956 -0.0021908688 -0.00047606358 -0.058960777 -0.04332232 0.01121909 -0.026782144 0.03343322
star 0.007490245 -0.031172326 0.01928837 -0.011883086 0.016749643 -0.052491818 0.043315873 -0.027305981 -0.024919132 0.059226654 -0.05016059 0.016033787 -0.012201213 0.0015593363 -0.046688944 -0.036371153
shot -0.10816404 -0.023463372 0.028594276 -0.04247684 0.0036352216 0.11779116 -0.0031696013 0.09551401 -0.078802794 0.00011862381 -0.021981863 0.06898833 0.05253881 0.03402927 -0.07071654 -0.0018743797
war -0.05349798 0.0060171606 -0.022586778 -0.044739787 -0.0045791147 -0.0029480353 -0.032630272 0.08289188 -0.009548031 -0.04683699 0.014475049 0.018829497 -0.05388515 0.013937361 0.07996331 0.13247252
idea -0.0137341665 0.08027339 0.09209577 0.104288906 -0.0338564 -0.047491707 0.0674187 -0.045866977 0.09092574 0.09742427 -0.023485553 -0.029981636 0.08700082 -0.0066545466 0.046534363 -0.09053519
nice -0.03518168 -0.04182232 -0.06688538 -0.05860156 0.017076496 0.016555697 -0.08878783 0.04931881 -0.04841868 -0.06717928 -0.007835538 -0.006856736 -0.09506752 0.05117427 -0.104509 0.027144166
black -0.0014447646 0.038674682 0.04252193 0.009554973 0.0076432736 -0.059616733 -0.0025005061 -0.024555981 0.0048955753 0.09444728 0.02531986 0.0027655542 0.108661756 -0.07002368 -0.041377667 -0.07972108
less 0.0358381 -0.008980933 -0.0107572265 0.006394994 -0.01245495 0.032760914 -0.041995995 0.030363364 -0.073631465 0.01002154 -0.008649972 0.0033541522 -0.03729818 0.007533983 -0.011160791 -0.05661674
mind -0.04620234 0.0022681465 -0.0034167052 0.03300435 0.012909059 0.03760314 0.010755969 0.0078616375 -0.061049838 0.052135035 -0.006828533 0.009622506 -0.030310322 -0.025065446 0.10530236 -0.0045008427
simply 0.026922617 0.10722244 0.041849636 0.042370148 -0.015096919 0.023073087 0.07403883 -0.051896643 0.0796918 0.015199287 -0.072781295 -0.14804785 0.022672545 -0.0735116 0.05931116 -0.081176475
read -0.07158667 0.010245265 0.019967275 0.031405475 0.024429819 0.026159815 -0.06920011 -0.019173384 -0.015256631 -0.04223944 -0.011500451 -0.01577047 0.062917635 0.081694715 -0.0056844885 0.04665806
second 0.034309465 -0.015890189 0.030145288 0.016042404 0.020858286 0.017707936 0.066126004 -0.0074392017 -0.028718114 0.078382194 -0.0070705274 0.04464166 0.07297903 -0.08312569 -0.019494766 -0.08701679
else 0.0032420931 0.08923934 0.031697076 -0.0012615956 -0.04942467 0.07686903 0.052925814 0.010113216 0.05920716 0.0529881 0.010981586 -0.07220742 -0.014888021 0.0058579873 -0.024840178 0.0129390545
you're -0.009142581 -0.062319793 0.08276935 0.05091752 -0.037338566 -0.024911374 0.050404146 -0.038113635 -0.01811897 0.033068072 0.0062499903 0.015904168 0.043497078 0.017654996 -0.087586254 -0.06913493
father -0.0069760913 0.037199605 0.008773921 -0.1048748 0.040222153 -0.059971087 -0.029290648 0.009529649 0.009793424 -0.03842613 -0.01100332 0.06274556 -0.0065393606 0.057783294 -0.017954497 -0.008944662
fan 0.06934706 0.021502666 0.028984481 -0.048685983 -0.045932747 0.03626955 -0.018504621 -0.0346376 0.011214711 0.032497473 0.0026184644 -0.030287137 0.001756454 0.00030128803 0.031460132 -0.014232355
poor 0.10844715 0.14240535 0.20859432 0.16940151 -0.1516443 0.032437816 0.13634115 -0.07953391 0.08503098 0.10535813 -0.12887646 0.07381555 0.12621263 -0.05855889 0.06495699 -0.1218872
help -0.00049463345 -0.0053643044 -0.0048064026 0.014908774 -0.036829922 -0.0022063723 0.07342453 0.029674325 -0.009220169 0.013288979 0.05193641 -0.088182196 0.007137371 0.014254703 -0.028872482 -0.04260066
completely 0.04223902 0.08771047 0.007877258 0.03878712 -0.08649306 0.09125678 0.057379078 0.048287813 -0.020120507 0.055011887 -0.021308914 -0.017418351 0.03189172 0.016184617 0.011607046 -0.06203959
death 0.005290935 0.009047565 0.015864301 -0.0453427 -0.0045196973 -0.005648895 0.046541486 -0.028105024 0.03970608 -0.033687633 -0.060366914 0.018632773 -0.03438206 0.0018949735 -0.021857738 0.0077328673
3 0.0283378 0.04851999 0.06324635 0.043661505 -0.08832062 -0.09580106 0.014829223 0.0216252 0.01264909 0.07452384 -0.0633235 0.05410511 0.031312227 0.00415835 -0.08210139 -0.019689437
used 0.025092727 0.026603663 0.0062313285 0.048458636 0.004998774 0.071475156 0.00032007432 -0.018654402 0.054286133 -0.008222458 -0.046835087 0.008017734 0.050045762 -0.015864838 -0.0734723 0.0068626683
home 0.0014444018 -0.04914588 0.056600284 0.0063192598 0.020613125 -0.054033834 0.012750901 -0.052072603 0.04990532 0.065111294 0.04390257 0.09347108 0.06389205 0.01373187 -0.015235153 -0.014580807
either 0.055168103 0.0916806 0.02295807 0.029957516 0.010515308 0.027027264 0.037957564 0.0024340756 0.054074045 0.001560336 -0.038132817 -0.022265747 0.04134206 -0.041731704 0.05166159 0.015073261
short -0.028072333 -0.036593094 -0.08150851 -0.014081528 0.049232125 -2.7049478e-05 -0.09743862 0.07367755 -0.022274837 -0.06449761 0.047171563 -0.013387656 0.0012994877 0.071634874 -0.063896544 0.0451555
line -0.039449308 -0.039062798 0.0033142339 0.043875273 -0.0058520148 -0.030295696 0.017451225 0.021813339 -0.011307665 0.057011608 0.054154042 -0.0035969792 0.064081185 -0.059154835 0.021837434 -0.024406362
given -0.015251324 -0.053882625 -0.049517106 -0.050173264 -0.00084244803 0.05093577 0.011753322 0.020874823 0.0053606452 0.028991563 0.032748666 -0.04612566 -0.05220755 0.0044717803 0.05867649 -0.0014396735
men 0.053837787 -0.059344076 -0.0075246156 0.025002811 0.031372752 0.027395759 0.032482702 -0.018547496 0.02910652 -0.030871654 0.0025661716 0.019727787 0.054137398 0.019279452 -0.063982934 0.02531476
top -0.046178214 -0.025542144 0.039605457 0.0004368551 0.01869217 0.0032716603 -0.045168545 -0.013996973 -0.03940723 -0.0012729235 -0.011695493 0.05313143 0.0039982637 -0.0073309825 0.018718539 0.011979339
dead -0.0068499562 0.018419405 0.01794599 0.0052472046 0.061102957 0.017091947 -0.035489313 -0.012607534 -0.008725596 0.017271632 0.05833967 0.025247559 0.0074096364 0.11074348 0.027350899 -0.036315482
budget 0.0018684177 0.006141862 0.04361533 -0.030072829 -0.0048065693 -0.059416782 -0.012813093 0.0129879955 0.021568105 -0.04620354 0.016253306 -0.042875595 0.053564236 -0.03532229 0.08691985 0.00845873
try -0.0076806084 -0.023190033 0.031168172 0.02877591 -0.016853109 0.0018072323 -0.015873026 -0.015948486 0.015597223 0.026420003 0.039689243 0.021836342 -0.0048820395 0.003307232 0.07373839 0.023276897
performances -0.13438469 -0.008177708 0.0025507146 -0.004513479 -0.04455597 0.003435822 -0.030380096 0.00011917704 -0.045766123 -0.030927915 -0.072447784 -0.005694443 -0.028660525 0.020126315 -0.04986634 0.01759993
wrong 0.018205702 -0.060327318 0.046016667 -0.01383826 -0.019571852 0.007491631 0.017501323 -0.047947366 -0.0054486687 0.0433448 -0.006976978 0.07391764 0.024895858 0.02097814 -0.028678173 -0.023108734
classic -0.07819857 -0.007960908 -0.04628586 -0.013159429 0.048974186 -0.040675182 -0.07701289 -0.011283194 -0.0016306019 0.025403172 0.0102595985 -0.019457871 -0.032067847 -0.03590823 0.03079405 0.01490573
boring 0.045718353 0.1816589 0.1571421 0.13330936 -0.17373744 0.11706403 0.114749804 -0.10130352 0.1034952 0.15034452 -0.082487896 0.05078006 0.16236608 -0.18097988 0.07901428 -0.10574203
enjoy -0.07714176 -0.04378994 -0.11732646 -0.029178549 0.08754581 0.06646611 -0.05920624 0.06863224 -0.04378367 -0.0061276397 0.029683143 0.059390176 -0.037086237 0.044275712 0.05122593 0.08047182
need 0.0525704 -0.041022066 -0.008789524 0.04728354 0.00015525057 0.056594335 -0.059700225 0.028522696 -0.018599603 0.012793101 -0.0051318365 -0.032780945 -0.016736012 0.034531735 0.05979274 -0.04141772
rest 0.0006654883 -0.013124771 0.02585834 0.015631845 -0.011884646 -0.08584149 -0.02297454 -0.001098309 0.015387746 -0.016538512 0.017520368 0.016275162 0.032029305 0.03434449 -0.018090462 -0.03690038
use 0.01068383 0.015364435 -0.008533619 0.0013082761 0.032740194 0.055254698 -0.0031741497 0.0022406648 0.038961686 -0.003698253 -0.013472107 0.01519178 -0.021854304 -0.048036035 0.0069213226 -0.03988733
kids 0.08223264 -0.053647812 -0.016035974 0.024085032 0.009067649 -0.03557782 0.0025744915 -0.0386872 0.021339942 -0.001318531 0.051509697 -0.07316489 -0.041664742 0.030108524 -0.040344633 0.039517898
hollywood 0.036787532 0.007804257 0.002556478 -0.034843378 -0.024087003 -0.047357395 -0.010789475 0.041659974 0.00031549425 0.068021454 0.025202302 -0.033494197 0.046732377 -0.011575627 -0.03735289 0.04606509
low 0.008173682 0.051685333 0.011960252 0.019064568 -0.05325385 0.037339408 0.053910498 0.01939413 0.038191147 0.029721517 0.060009513 -0.012788578 0.08135653 -0.048201475 0.055110957 -0.100345105
production 0.05643802 0.022053579 0.092390195 0.078083366 -0.031468317 -0.06730897 -0.0058720834 0.02056484 0.08431375 0.032399826 0.049593985 -0.054107875 0.053664718 -0.06908699 0.08698158 -0.090131044
until 0.021266852 0.016355298 0.001841165 -0.031887427 0.05786124 -0.06894623 0.053010985 0.05055307 0.008926391 -0.038102277 0.010675381 -0.024432959 -0.0071340404 0.08524194 0.0698567 0.07337585
along 0.021140624 0.020792335 0.00691477 0.0048336196 -0.05306598 0.07617179 -0.024312507 0.056032363 -0.048151206 0.0053156917 -0.063727535 0.093867786 0.027615126 -0.0034232538 0.055886943 0.08428705
full -0.053822596 -0.051225983 -0.03437568 -0.038146615 0.017665518 0.03406808 -0.022353033 0.07302622 -0.06234493 -0.021518202 -0.014644384 -0.08673807 0.020655856 -0.04305006 -0.089180976 7.915336e-05
friends 0.05209588 -0.019184673 -0.0003341456 -0.073876575 0.042788807 -0.022186223 -0.032173 0.060823243 -0.07761202 0.02003842 0.05502285 0.036120947 -0.062796436 0.040359825 0.0071163406 -0.039619848
camera 0.023970686 0.02422042 0.07464882 -0.01712166 0.022417398 -0.037930433 -0.021735234 0.003953649 0.015353876 0.032914046 0.019079775 0.09486816 -0.0069871875 -0.07939569 0.027741846 -0.058332875
truly 0.014444441 -0.09223971 -0.06230078 -0.065642856 -0.062724434 0.10500937 -0.0017222839 0.02092701 -0.13860846 0.027113492 -0.076105036 0.029488483 -0.04617643 -0.043791436 0.14402232 0.067497715
women 0.02147233 0.040814523 0.051853396 0.046960555 -0.06665355 0.06843087 0.01341172 0.06302906 0.00078529294 0.060677268 0.058083076 -0.057102166 -0.008609752 0.033705954 0.09850869 -0.079107404
awful 0.1419443 0.09320291 0.1438884 0.10176711 -0.15980715 0.13780315 0.14005838 -0.1151027 0.11481044 0.13241047 -0.062482856 0.009559764 0.19740935 -0.091829285 0.16111265 -0.1964553
video -0.030133074 -0.00519135 0.014625383 -0.012774683 -0.03155088 -0.019826531 -0.0632127 -0.018936576 -0.0038821043 0.017168155 -0.007492993 -0.048942458 -0.017981766 0.060793392 -0.027572934 0.03400918
next 0.0027095608 -0.011465866 -0.04991783 -0.015545488 -0.03463576 0.026125459 0.043841615 0.053311057 0.03136378 0.07281317 0.039719757 -0.019727908 0.065433465 0.020327395 0.030195694 0.01565581
tell 0.019146325 0.013406974 0.04122673 0.044824097 -0.039974216 -0.009203489 -0.086663686 0.040234268 0.0269974 -0.034733012 0.1062091 0.014000712 -0.022415929 0.01082073 0.046502106 -0.004370233
remember 0.02613397 -0.0006818114 -0.016279357 0.034459915 0.009348621 0.06095619 -0.03377383 -0.05507844 -0.027085833 -0.0515111 -0.037609097 -0.048417136 -0.052913375 0.060877774 -0.047245182 0.035751823
couple 0.058914576 -0.028127601 0.054732423 0.033859078 -0.050095156 -0.05889758 0.05460326 -0.01228663 0.009690278 0.0611756 -0.0018309705 0.031624112 0.013654149 -0.055469066 0.02021922 -0.10711368
stupid -0.025482543 0.031967685 0.06668533 0.03357807 -0.019858088 0.0464871 0.06978088 0.041977722 0.037683297 0.058835477 -0.061792407 -0.1312719 0.013396378 -0.043176346 -0.04850531 -0.08287927
start 0.020159723 0.05037214 -0.0031856939 0.019283947 -0.0009828713 -0.114788845 0.01971654 -0.08172649 0.07159284 0.07124086 -0.063937865 -0.06026372 0.01823741 -0.019860992 -0.004256655 -0.083631165
stars -0.022812678 -0.009834946 -0.08261649 0.042070575 0.032804787 0.01994057 0.0376365 -0.018468136 -0.027887607 -0.07329034 -0.06836826 0.03111973 0.024554996 -0.056436148 0.059070677 0.015888607
perhaps 0.042778835 0.030169029 0.03296671 -0.01206847 -0.03167118 -0.062153444 0.011292304 -0.028262889 0.057607725 0.034217894 -0.03796478 0.020957118 0.050147902 -0.047333315 -0.03962192 0.025411742
sex 0.04583122 -0.027435891 0.03851402 -0.0008037643 -0.05868766 -0.014287445 0.014528107 0.025506644 0.020108093 0.0036832264 -0.029536119 0.031459298 0.047097903 -0.013462411 -0.03351919 -0.072777584
mean 0.004328022 0.083559245 0.02533551 0.0013319443 -0.037258234 0.032789387 -0.008868846 -0.08474731 0.0087818485 0.071710214 -0.06118378 -0.036331337 0.04379735 0.006739268 -0.005775162 -0.0013198484
came -0.0008388947 0.019544674 0.08183106 -0.01345185 -0.0474242 -0.016662756 -0.035389617 -0.046814635 -0.019333474 0.025309296 0.015312763 -0.017930616 0.012590784 -0.024825398 -0.031264298 -0.018962773
recommend -0.12802525 -0.056316927 -0.118378304 -0.026243191 0.012511876 0.0014230297 -0.09794087 0.025686786 -0.06533196 -0.011046478 -0.030606158 -0.08986414 -0.0072244904 0.05753464 -0.039457742 -0.0019002863
let 0.01869095 0.035016347 0.021785835 0.0062250644 -0.009586214 0.02880701 0.014223011 -0.018543914 0.021655722 0.018240605 0.025584646 0.06115618 0.06342543 0.0009879655 0.086916246 -0.02269352
moments 0.00053869234 -0.04367078 -0.0846779 -0.0020610315 0.009739377 -0.061587527 -0.044072397 0.011164785 -0.06122823 -0.022918127 0.021542126 0.015222889 -0.022775792 -0.022411427 -0.0008155417 0.0068787145
wonderful 0.022053853 -0.10935766 -0.08645809 -0.14675851 0.13140959 -0.057835437 -0.06632722 0.11422744 -0.1130148 -0.13276742 0.16037332 -0.07264027 -0.042692706 0.11877959 0.11595351 0.1432081
episode 0.0021331834 -0.053606346 -0.079130255 -0.07108795 0.04046696 0.016215941 -0.05133483 0.008614364 -0.124161854 -0.036365665 -0.032203626 -0.0073683974 -0.023383167 0.10656677 0.024875902 0.04981507
understand 0.017512558 -0.040018693 -0.023745714 -0.03812583 0.03201882 0.0033912186 0.004229354 -0.0059260167 -0.030008435 -0.0039151823 0.039334066 0.015888695 0.01393071 -0.0010819173 0.014507353 0.04445692
small 0.041562494 0.03226969 -0.030065406 0.046601385 -0.018749958 -0.06555332 0.005339243 -0.008021577 0.03309844 -0.023716344 -0.0070636836 -0.011654052 -0.040765654 -0.066123515 -0.06704821 -0.034681626
face 0.042060647 0.02377981 0.0013023764 -0.0025355918 0.025109079 0.0359244 0.0074360813 -0.0049857134 -0.003028579 0.0053497264 0.09202913 -0.0046754503 0.023326762 -0.049399104 0.096849136 -0.004878186
terrible 0.070067 0.10096191 0.086791895 0.16387801 -0.07174639 -0.062025636 0.054019555 -0.06641949 0.107341126 0.075196795 -0.078171164 0.07285603 0.1563486 -0.121527426 -0.024567308 -0.06542352
playing 0.0455605 0.024174284 0.06008062 -0.0025386366 -0.050561678 0.021574145 0.039357867 -0.016732762 0.0016266785 0.015483995 -0.018810144 0.0090672225 0.010382396 -0.007866491 -0.10134688 -0.05905922
school 0.008546831 0.031412672 0.065699175 0.08439708 0.00838701 -0.030339032 0.0021774734 0.042759933 0.10920286 0.03070349 0.036414776 -0.031064631 0.050269134 0.020496257 0.08557839 -0.07170641
getting -0.055690713 0.04302387 -0.025920093 0.026903674 0.015396242 0.06657059 0.044192024 -0.034967586 -0.045578644 -0.023759604 0.045007996 0.051675014 -0.0037485736 0.04110427 0.036205646 -0.0135412775
written -0.0014712261 0.08156008 -0.011445086 -0.011099303 -0.08129736 -0.100052536 0.0685135 0.004074596 0.018151835 -0.0057273405 0.003422143 0.00980441 0.07914569 -0.037617538 0.002184904 -0.060351446
doing 0.06634074 0.08992195 0.060613766 0.03826671 -0.13236967 0.03469844 0.06647602 -0.07203259 0.025226826 0.07082539 -0.0019327045 0.046030983 0.017620819 -0.04347548 0.093175866 -0.051963348
often 0.08786939 -0.027605578 -0.010419598 0.03765593 -0.07243149 -0.0060114334 0.0020684078 0.01766938 0.042522613 -0.039970938 -0.10480541 0.11688138 -0.00062318024 0.0012293987 -0.037747327 0.0533289
keep -0.023447344 0.013161134 -0.021970494 -0.02020762 -0.030040093 0.10633106 0.035825294 0.021216696 -0.007841231 0.005961044 0.056053754 -0.019126192 -0.031015314 -0.02895855 0.054166283 0.065641366
early 0.06284601 0.044145737 0.026748233 0.03157656 -0.0713809 -0.10923896 0.028509403 -0.017002424 0.03341406 0.017931089 -0.06288507 0.05081792 -0.05754727 0.0059567885 0.103446014 0.00398782
name -0.016652618 -0.027566623 0.06550002 0.030310472 0.038351215 -0.045733135 0.043290272 0.06187378 0.10682632 0.0034813976 -0.03267438 0.014692132 0.03984939 -0.030938933 -0.05271555 0.0010038704
perfect 0.12072586 -0.02927 -0.12882091 -0.12426631 0.11799689 0.0972372 -0.1121733 0.08284349 -0.14145224 -0.10976282 0.09087188 -0.10955246 -0.16078873 0.067357406 0.12155234 0.14138639
style 0.05375158 -0.05558615 -0.016687328 0.065753 0.021059515 -0.0030363407 -0.041176233 -0.04563331 0.014587063 0.023532227 -0.009945821 -0.07901067 -0.00635352 0.010762984 0.017083388 -0.032533
human -0.017199729 -0.039798923 -0.048840184 -0.08053777 0.014323582 0.022301441 -0.06325752 0.014710196 -0.093041405 -0.044565015 0.020363739 -0.07343186 -0.0600955 -0.03927583 0.06392305 0.04624736
definitely 0.012903934 -0.10325624 -0.06265888 -0.064304486 0.03786919 0.011779994 -0.050717384 0.05413235 -0.09301962 -0.044203512 0.09637826 -0.015390694 -0.009357351 0.08917864 0.09177403 0.12425806
gives -0.051708657 -0.0106333215 -0.07576664 -0.024730125 -0.0038018222 0.07189373 -0.04050844 0.06662489 -0.011486825 -0.03537677 0.0047884015 0.05038289 -0.08521131 0.00907317 -0.00043027854 0.053066175
others -0.006214509 -0.05568637 -0.08340502 -0.07765332 -0.034393445 -0.05784404 0.016449763 0.05181868 -0.058394752 -0.033847142 0.0076504676 0.009120279 -0.008863903 -0.009046501 -0.11057979 0.024561925
itself 0.002861364 0.017151132 0.025304759 0.058560975 -0.07983405 -0.07986331 0.039120875 -0.06959103 0.09487732 0.0996595 -0.014944685 -0.023326037 0.08870771 -0.10823025 0.022080531 0.0058948426
lines -0.07845478 0.0523158 0.07147315 0.09470425 -0.0068924637 0.018825546 0.03525009 0.012870015 -0.04274219 0.029035507 0.0013475913 0.015803998 0.0108144 -0.0066192234 0.055748697 0.0024545034
live 0.034657557 -0.040563133 -0.017500857 -0.0750431 0.025096938 0.09418743 -0.0989331 0.023402354 -0.00086111657 -0.06480087 -0.024126418 0.023500012 -0.044918746 0.023272404 8.051288e-05 0.06798672
become -0.004258667 0.009022593 -0.08717117 -0.082842804 0.038056225 -0.0010076264 0.002021535 0.010738151 -0.07541548 -0.008985177 0.0444206 -0.021596875 -0.053887397 0.03994837 -0.047314618 0.039231244
dialogue 0.026427437 -0.022631375 0.08955632 0.076301776 -0.077991195 0.047181904 0.08929886 -0.07745644 -0.013448333 0.0076648393 -0.014256544 0.042156193 0.0203512 0.023523418 0.13326973 -0.114053294
person 0.029113723 -0.050011043 -0.026150316 -0.02194386 -0.034010712 -0.006628879 -0.03945987 -0.046388056 0.009971017 0.011408389 0.052007776 -0.049630817 0.056208327 0.02102555 -0.010458442 0.018317515
lost 0.012866054 -0.0062898085 0.058769535 0.06661883 -0.021545455 -0.008326379 -0.010950198 -0.007157025 0.079846665 0.04367569 -0.01495595 0.042317934 0.057051484 -0.00062205555 -0.06843637 -0.035619427
finally 0.012215642 0.02131871 0.034972213 -0.0036534243 -0.009925102 -0.060513057 0.03165802 -0.06022157 0.044464625 0.027286332 0.012117309 0.04436728 -0.0014423146 -0.043263633 0.023917856 -0.08422495
piece 0.018804712 0.05571726 0.06619269 0.006218011 -0.040715367 -0.11911334 0.10235575 -0.03701511 0.061891004 0.001705041 0.031381708 -0.006675127 0.057967417 -0.069142506 0.09694403 -0.021389041
head 0.027949475 0.025390573 0.0334812 0.07304449 -0.047163982 0.032458615 0.10511586 -0.03463402 0.051936444 0.0027306122 -0.053614244 -0.00642013 0.09604356 -0.02804575 -0.032886386 -0.03871632
case 0.01292462 -0.062685594 -0.060258288 -0.06162002 -0.036081046 0.01725511 -0.038726732 0.048600905 0.0037617893 -0.06841667 -0.01754123 0.028993057 0.013616026 0.011652924 0.075332716 -0.0073076165
felt 0.03801306 -0.004610286 0.013894468 0.024164092 -0.053811513 -0.1011254 -0.011795831 -0.04693922 0.075912274 -0.015079703 -0.07588238 -0.06468914 0.06326046 0.01098787 0.0006257894 -0.036644343
yes -0.011165582 -0.0096751 0.025113868 -0.03504365 0.03458439 0.020850232 -0.01492134 0.01932363 0.017350357 -0.0035787001 0.075613216 -0.0047759786 -0.05511211 0.08539224 -0.051996414 0.079062045
liked 0.05484762 -0.08298529 0.011246805 -0.06761945 0.06509628 -0.008282422 -0.023413826 0.046732217 -0.058954712 0.02555037 0.08755763 0.016176105 -0.014629738 0.06793452 0.061454915 0.039652992
supposed 0.0036707898 0.077006795 0.11724992 0.06381542 -0.038239643 -0.0831748 0.11481219 -0.057833068 0.13249221 0.028116783 -0.07649163 0.034084253 0.039404973 -0.07070461 0.024818238 -0.03027576
title 0.030907564 0.0704877 0.08206049 -0.03932835 0.03401456 0.049644403 0.010844835 0.020792183 0.010389772 0.033156652 -0.03497 0.03406732 -0.036690857 -0.020810934 0.051996022 -0.055628583
couldn't 0.0012420707 -0.0171194 0.039195318 0.045837443 -0.048529886 -0.027110148 0.04434916 -0.08222686 0.016527507 0.06972844 0.008471827 -0.07425033 0.010955119 -0.035212684 -0.0003435682 -0.062140744
absolutely 0.020303592 0.05763008 0.03931347 -0.02118626 -0.026457733 -0.0153187355 0.090647675 -0.051336344 0.039224483 0.013869347 -0.009241993 0.11801474 -0.01942255 -0.06251336 0.019910611 -0.07451828
white -0.050643373 -0.022846356 0.012240982 0.016435701 0.057827644 0.06053658 -0.054270346 0.04257002 -0.09126287 -0.0560072 0.045057308 -0.007756447 -0.0620806 0.0022172069 0.08188049 0.021116955
against 0.002358237 -0.0485302 -0.03846536 -0.07726466 0.00396099 -0.03944623 -0.08743373 0.004094687 -0.09255942 -0.010986288 0.034999777 -0.07200587 -0.038144093 0.08045544 0.035074923 0.07475671
boy -0.04538443 -0.020924337 -0.06077362 -0.071782105 0.06527824 0.05450862 0.0028733118 0.01127747 0.026003502 -0.04168428 0.030768303 0.050802626 -0.017448282 0.023372864 0.044223465 0.075163044
picture 0.05067161 0.008910041 -0.009164439 -0.043054055 -0.0680327 -0.012280321 0.032041214 0.040904447 0.038705494 -0.026521673 0.021645525 -0.010498689 0.028820293 -0.051052183 0.04585543 -0.00766222
sort 0.02096041 0.06939578 0.03164675 0.056379274 -0.037136547 0.035888303 0.06117718 0.03125384 0.062064696 -0.06321183 -0.05779866 0.026306693 0.01498488 -0.038345408 -0.03681593 -0.022062289
worse 0.0718627 0.06416391 0.122248314 0.118336864 -0.12410508 0.012183773 0.14922528 -0.09113415 0.120681845 0.050423045 -0.10105329 0.12804136 0.08653779 -0.12407283 -0.004313851 -0.112681516
certainly -0.061950475 0.0066847843 -0.0077200853 0.018007813 0.04033455 0.034083296 -0.030110579 0.0059285564 -0.042099968 -0.027571732 0.025173115 0.06711947 -0.027900754 -0.052978676 -0.018873222 0.021242812
went 0.023044856 -0.014002631 0.083707 0.027491305 -0.012163441 -0.033815846 -0.004894402 0.049066648 0.014299589 -0.003334751 -0.013576019 0.029751506 0.044241756 -0.0064626425 0.07400411 -0.016560124
entire 0.046220254 0.0014065269 0.08434111 0.045646984 -0.0051238313 0.039091352 0.052289907 0.048121475 0.037029747 0.04923361 0.023105873 -0.031190068 -0.0037955772 0.006461879 0.039402433 -0.04120383
waste 0.22551033 0.21151417 0.2157715 0.2002619 -0.12099674 0.16816965 0.16266643 -0.11679586 0.17857225 0.1970882 -0.001380612 -0.18677397 0.18926606 0.09588932 0.23206472 -0.22850336
cinema 0.009370912 -0.0066500264 -0.07390991 -0.024008848 -0.022340355 -0.068850406 0.0008674102 0.068724036 -0.0651249 -0.019143088 -0.02575654 -0.09588553 -0.07682776 0.081384115 0.006621795 0.019165674
problem 0.07198195 -0.0023524764 0.09770508 0.07054931 -0.06711558 -0.019639965 0.09825073 -0.0058329036 0.038095877 0.058605585 0.053569447 -0.047353055 0.053213812 -0.015784621 0.03835365 -0.08768418
hope -0.0751722 -0.06363927 -0.060872823 0.027219856 -0.035369527 0.061943714 -0.041618735 -0.010359724 -0.023095187 0.0055696466 0.016979158 -0.01757434 0.00093512534 0.031833827 0.04341921 0.071641564
entertaining -0.03226963 -0.05988763 -0.09863237 -0.11374654 0.036864355 0.027541008 -0.11311035 0.08009913 -0.1687575 -0.06963271 0.03972312 -0.010561299 -0.1305665 0.133129 0.13329363 0.11756482
she's 0.07129416 0.042931262 0.07912361 0.018398969 -0.069893084 0.06118786 0.017504942 -0.019004824 0.059066754 0.01599351 -0.053822923 0.0884919 0.0072002634 -0.03844803 0.033760015 -0.026830701
mr 0.03631509 0.07190852 0.011805278 0.058468364 -0.037543625 0.024267577 0.06872331 -0.06649856 0.062009722 0.10018331 0.00438711 0.1134349 -1.11205e-05 -0.0056160507 0.101806246 0.030589648
overall 0.02523096 -0.03146671 0.029438542 0.029767675 -0.027500147 0.04743205 -0.0491287 0.035777647 -0.02091871 0.0289605 0.041411836 -0.03827149 0.031872466 -0.068733186 0.023085056 0.030373964
evil 0.060951326 0.029333042 0.04425014 0.046441942 -0.045361046 0.020364838 0.012219781 0.040014535 0.052522667 0.00940662 -0.03990207 -0.029637411 0.021937786 0.012252619 0.014707669 -0.058827646
called 0.032812655 -0.04591535 -0.022307977 0.007303221 0.044456158 0.054564934 -0.039175503 0.048069995 0.011562585 0.022725996 0.0017591 -0.07755081 -0.021777097 0.06313454 0.043870185 -0.0258193
loved -0.024484396 -0.029171076 -0.080681555 -0.14115731 0.012693442 0.04592693 -0.127977 0.103746854 -0.071920864 -0.09426124 -0.00790624 -0.006434746 -0.11607963 0.14305766 0.10426239 0.15803315
based -0.05765273 -0.042768553 -0.013130449 -0.053818822 0.02076295 0.021079188 0.023664853 0.054435655 -0.04970185 -0.05969193 0.05699255 0.024416381 -0.07930187 0.030231785 0.09764284 0.067718215
oh -0.0039461884 0.09247397 0.058822006 0.052222215 -0.09410923 -0.049592104 0.08336643 -0.025466152 0.019286223 0.06469465 -0.03968017 -0.03990335 0.11807033 -0.10757639 0.14047034 -0.114846565
several -0.057812497 -0.03876627 -0.017596101 -0.055130467 0.076617286 0.09029653 -0.0768841 -0.0008326903 -0.11025424 -0.11326206 -0.0003442905 0.00079421577 -0.107263364 -0.019185964 0.105872005 0.06117266
fans 0.07305377 -0.051933296 -0.06530227 -0.079328105 0.041627005 0.07469051 -0.04862611 0.0673366 -0.0032534176 -0.015800381 0.045672417 -0.045792006 0.000991521 0.020034 0.017436115 0.08054359
mother 0.03200674 0.057782065 0.107168406 0.05401252 -0.0670389 -0.09001173 0.024332408 -0.051196907 0.027410869 0.052576788 -0.009949815 0.07898322 0.07244626 -0.06914975 0.049818672 -0.0007818235
drama -0.015564024 -0.009077625 0.04247368 -0.034197744 0.003532015 0.013296659 -0.013311224 0.03956905 0.022229018 0.0035588033 0.011427708 0.061339624 0.004675421 -0.044524718 0.004871111 0.03888016
beginning 0.0014034121 -0.029708374 -0.023596406 0.03859643 -0.024735458 0.0051891096 -0.01516428 0.024951436 -0.029025592 0.012847584 0.013210109 0.022708386 0.04450636 -0.02051102 0.0055915816 -0.043198086
killer 0.01765906 0.05095378 -0.054749843 -0.045332517 -0.014259554 0.028451115 0.029625438 -0.0028725516 0.0036827042 0.03710198 0.021611415 -0.073802434 0.03020889 -0.039232478 0.005335545 0.0032100864
lives -0.004899129 0.022250896 -0.03240506 -0.002452395 0.019591963 0.023397421 -0.06964605 0.039204117 0.02915687 0.013436755 0.016309254 0.060507536 0.0044449186 0.026168898 0.009561148 0.03511986
5 -0.0036820674 0.01201375 0.03616413 0.00764941 0.0034501234 -0.09868777 0.01630338 -0.03643451 0.07203059 0.022769675 -0.016644042 0.032432113 -0.0029110461 -0.004941903 -0.042139634 -0.0007052185
direction 0.069291495 0.01769871 0.028093854 -0.0055505233 -0.037886187 -0.031911828 0.027275003 0.006978147 0.033815004 0.067206465 0.048599396 -0.035795614 0.023161495 0.016924553 -0.011777129 -0.08345942
care 0.08824081 -0.01493325 0.04700601 0.07526843 0.014684933 -0.02608131 0.016920777 -0.010825964 0.04056227 0.08708837 -0.08510136 0.034379 0.03106135 -0.04239992 -0.0557382 -0.04296303
already -0.014363396 -0.021762095 -0.010265033 -0.060576864 -0.03228569 0.008458563 0.06888061 1.1612156e-06 0.028013604 0.025798585 -0.030981297 0.00042430987 -0.045739457 -0.088913225 -0.00633913 0.03878179
becomes 0.037786372 -0.05746769 0.027881978 -0.0037848079 0.0685911 0.06552412 0.02840036 0.029871475 -0.051146504 -0.052069135 -0.009729329 -0.033176403 0.0493648 0.012139109 -0.02279993 -0.013540401
laugh -0.040472265 0.0035734049 0.022483101 0.045015045 0.008151562 0.03075773 0.030139938 -0.044599686 0.011157217 -0.028046828 -0.0033917425 0.0033868037 0.04832342 0.0060972925 0.016768528 0.008175285
example 0.07991468 0.03516155 0.04212525 0.032545116 -0.04501519 -0.0013485155 0.016890831 -0.045042988 -0.0065524797 0.0299949 -0.024004806 0.102377705 0.027271992 -0.009355604 0.055829503 0.0005567483
friend 0.045184843 0.003944468 0.039664444 -0.018554524 -0.000947857 -0.02798013 0.07938937 0.02379047 -0.02162331 0.017454721 -0.059145372 0.083090924 0.031004364 -0.036310013 0.06850938 0.0017609346
dark -0.071289584 0.06802853 -0.016917026 -0.06263372 0.044010054 0.050075654 -0.017026154 0.02022473 -0.051282946 0.0142666865 0.055045906 -0.0051897233 -0.055983648 0.088207655 0.10179328 -0.002129578
despite 0.080206074 0.023777789 0.0041296654 0.040599313 -0.010562885 -0.0635134 0.05003969 0.008565387 0.07723324 -0.005729992 -0.10695089 0.08281496 0.033694986 -0.048112836 -0.03849439 0.026552156
under 0.0014079877 0.05417844 0.019602967 -0.04172253 -0.030857662 -0.050354406 -0.04151254 -0.0573576 0.017278157 -0.031483572 -0.039733477 -0.034462694 0.002374056 -0.07797501 0.02113571 0.015693655
seemed -0.03786464 -0.028890593 0.012360959 0.020104071 0.007555362 0.023025548 -0.0043290067 -0.013081019 -0.06632109 0.008531267 -0.09343766 0.05244229 0.06251517 -0.016666317 0.019566795 -0.04346469
throughout -0.14656906 -0.05214537 -0.0678628 -0.052416548 0.060290966 0.064027734 -0.09612006 0.02792126 -0.026155239 -0.032896437 0.059500564 -0.07794552 -0.044321135 0.094861425 -0.06668995 0.04914918
4 0.03195724 0.029938174 0.04834362 0.0026620198 -0.0072214673 -0.16082908 0.09814281 -0.11378611 0.043502543 0.044035364 -0.017080568 0.04540959 0.01720965 -0.10206659 0.06266377 -0.01262486
turn -0.0413241 -0.03420342 0.04852535 0.0195116 -0.010706538 0.011852159 0.015784767 0.024915686 0.049948018 -0.024392527 -0.014711082 -0.05276803 0.014957229 -0.03172185 -0.028141608 -0.021042619
unfortunately 0.08234641 0.06654601 0.12747206 0.116214044 -0.099923044 0.009712791 0.106723785 -0.038510576 0.09780473 0.106514335 -0.11327361 0.005424911 0.088877775 -0.068039276 -0.013346614 -0.09144771
wanted 0.0116501115 -0.040277004 -0.033016305 -0.015218249 -0.029992973 0.046909098 -0.018677471 0.057675064 -0.0140300095 -0.024579704 0.030936183 0.013300712 -0.04287018 0.056975607 -0.05484079 0.01776104
i'd -0.016071258 -0.0733901 0.022320256 -0.023479085 -0.028555607 -0.058842186 0.0017411521 0.035310388 -0.020268999 0.010937774 0.030168138 0.0066061094 0.014987055 -0.04637302 0.067287326 0.03160138
 0.049453385 -0.035923153 0.0475834 -0.010282808 -0.004038184 0.0657436 0.022231618 -0.027619956 -0.0009410523 0.0133295255 0.008227641 0.06196312 -0.019448468 0.06456007 -0.016733218 -0.017067587
children -0.0065572644 0.041977316 -0.007170854 -0.03400795 -0.073069766 -0.048229985 -0.013446111 -0.056559 0.0057317517 -0.012481733 -0.053536884 -0.0041375346 -0.0044504283 0.0058646495 -0.06450129 -0.05892081
final -0.027229354 0.018016804 -0.073129706 -0.049409855 -0.019065732 0.024153274 -0.0037262894 0.00034253765 -0.017579257 -0.017190581 -0.022314483 -0.0015704891 0.012755374 -0.03369982 0.015667975 -0.028837275
fine -0.043866485 -0.019867912 -0.07071716 -0.13131203 -0.022081092 0.06646088 -0.09262159 0.06604889 -0.034983683 -0.10540063 -0.024966111 -0.023524558 -0.02930413 0.054489195 -0.0150424875 0.097761534
history 0.016149774 -0.008053198 0.023113422 0.016880497 0.045883264 -0.03997608 -0.044786744 -0.011808099 0.043993343 -0.051949047 0.006786983 -0.05474855 0.022441052 0.025993237 0.076404095 0.032014094
amazing -0.09255177 -0.066277236 -0.10186562 -0.03437507 0.13425468 0.11452631 -0.13289942 0.04065762 -0.096202716 -0.106216386 0.09890979 -0.06705368 -0.16836578 0.037183113 0.12224747 0.07730921
sound 0.050488096 -0.038414113 0.010513091 -0.036418553 0.04861174 0.04880816 -0.028942235 -0.059409868 -0.022615012 -0.010775004 0.022693653 -0.079310626 -0.058942467 0.033446178 -0.037122574 0.035847515
guess 0.022652593 0.039854128 0.068770334 0.055320527 -0.07850792 -0.016181458 0.029858198 -0.112896696 0.05934342 0.0905287 -0.03810797 0.09071689 0.09884367 -0.047412366 0.04377111 -0.043781124
heart 0.003268242 -0.10698741 -0.06404633 -0.08499016 0.10542408 0.06531786 -0.09765665 0.05323878 -0.072259195 -0.02350909 0.121037684 -0.027356386 -0.094845906 0.09059242 0.13189709 0.12312358
totally -0.043861717 0.020804632 0.061319143 0.055017043 -0.018816562 0.09295296 -0.02580894 0.015429733 0.064453416 0.01651864 0.015778428 -0.10234536 0.054512516 -0.051853586 0.03737968 -0.022439716
lead -0.036647163 -0.054726124 -0.009008773 0.019911237 0.034376234 -0.023876786 -0.02661127 -0.0052214297 -0.034342095 0.0027034937 0.0819724 -0.034319438 -0.02461954 0.07896091 0.024856925 0.01437455
humor -0.04645965 -0.0889194 -0.056497622 0.013824561 -0.047264 -0.036454473 0.00010326593 0.06444761 -0.03279714 -0.078223534 0.019223424 -0.021243941 -0.026920818 0.008521073 0.056956124 0.066708826
writing 0.05266836 0.071837865 0.032403976 0.10331287 -0.03972696 -0.007693663 0.05952174 0.0039074626 -0.0365623 0.047996692 -0.07962675 -0.021959836 -0.04176711 -0.09473061 0.20672275 -0.09572794
michael 0.047730133 -0.011048593 -0.029176617 0.019852541 -0.03460177 0.024397489 0.023234935 0.045866825 0.05632535 -0.01709011 0.036168937 0.030138036 0.008081876 -0.080650546 0.006347249 0.034146845
quality -0.04699282 0.014383596 0.019518683 -0.0079176165 0.022144431 0.05934114 -0.025961323 0.003102866 -0.017073033 -0.039380036 0.05007597 0.029807411 -0.054801386 0.012418348 0.009643218 0.056201763
you'll -0.00073330884 -0.0019388071 -0.08647566 -0.023226298 0.05556807 -0.043320477 -0.002061513 0.027720502 -0.005943756 0.005684013 0.078038074 -0.091224775 0.012778194 0.0030650154 -0.012644257 0.02227341
close -0.1037788 -0.04586649 -0.0066658403 0.020500768 0.003631415 0.022571594 0.006192938 0.09928793 -0.073034495 -0.026895367 0.0022559594 -0.077807546 -0.0930663 0.09546821 0.024518574 0.028901746
son -0.040833805 0.016364 -0.07484127 -0.05166891 0.059627384 0.034397557 -0.036200903 0.010359364 -0.028184103 0.0415753 -0.009120339 -0.014379431 0.010237251 -0.057065073 0.020866347 -0.01050951
guys -0.07647027 -0.079362676 0.025865039 -0.015395243 -0.0019891574 0.014410092 -0.061834894 0.0060775336 -0.04462853 -0.049228072 -0.0075411177 -0.08684062 -0.055856463 0.011932896 -0.02667699 0.018519737
wants -0.033611614 0.07091081 0.0076126093 0.0616845 -0.047285262 0.06360519 0.04883931 -0.044472534 0.06408667 -0.009174364 -0.08280801 0.05874612 0.056066766 0.0025390647 -0.0006053263 0.017947437
works 0.010673014 -0.05128594 -0.07451302 -0.014719713 -0.023069847 0.057603575 -0.0022042044 -0.059294503 -0.040389586 0.016654458 -0.016522264 0.02520258 -0.07710892 -0.034014083 0.009254149 0.03106378
behind -0.032920122 0.015850183 -0.040489342 -0.0084411325 0.022633225 0.0120593095 0.011251575 -0.030818723 0.02449571 0.039572764 0.018408945 -0.056941167 0.00580093 -0.024482494 -0.004246979 -0.034490943
tries 0.028782424 0.033217933 0.021001277 0.07843485 -0.0632823 -0.052108478 0.025781266 0.011889448 0.04540608 0.03525754 -0.07117818 -0.055733435 0.10168352 -0.04018773 0.009600788 -0.09102948
art 0.038915448 0.037900336 3.69991e-05 -0.03558739 0.007386506 0.047266565 -0.040696323 0.043002427 -0.037912946 0.038390476 -0.002897485 -0.02815078 -0.06797953 0.028774505 -0.009613714 -0.016429096
side 0.021710288 0.020720828 0.047792055 -0.023344668 -0.0029574998 -0.0022004766 -0.00017155506 -0.0771853 0.0026395328 0.015394771 -0.09676295 -0.015022176 0.01175849 -0.04722317 -0.010048123 0.010979333
game -0.0129168155 -0.07357465 0.014596441 0.036698643 0.06320721 -0.019591227 0.030931959 0.020386688 -0.031214751 -0.048877697 0.06555372 0.043728124 -0.022256874 0.020582512 -0.07278026 -0.020541187
